digraph Tree {
node [shape=box, style="filled", color="black"] ;
0 [label="worst perimeter <= 112.8\ngini = 0.468\nsamples = 426\nvalue = [159, 267]\nclass = 양성", fillcolor="#afd7f4"] ;
1 [label="worst concave points <= 0.146\ngini = 0.161\nsamples = 284\nvalue = [25, 259]\nclass = 양성", fillcolor="#4ca6e8"] ;
0 -> 1 [labeldistance=2.5, labelangle=45, headlabel="True"] ;
2 [label="area error <= 42.95\ngini = 0.06\nsamples = 260\nvalue = [8, 252]\nclass = 양성", fillcolor="#3fa0e6"] ;
1 -> 2 ;
3 [label="gini = 0.031\nsamples = 251\nvalue = [4, 247]\nclass = 양성", fillcolor="#3c9fe5"] ;
2 -> 3 ;
4 [label="gini = 0.494\nsamples = 9\nvalue = [4, 5]\nclass = 양성", fillcolor="#d7ebfa"] ;
2 -> 4 ;
5 [label="worst texture <= 23.74\ngini = 0.413\nsamples = 24\nvalue = [17, 7]\nclass = 악성", fillcolor="#f0b58b"] ;
1 -> 5 ;
6 [label="gini = 0.245\nsamples = 7\nvalue = [1, 6]\nclass = 양성", fillcolor="#5aade9"] ;
5 -> 6 ;
7 [label="gini = 0.111\nsamples = 17\nvalue = [16, 1]\nclass = 악성", fillcolor="#e78945"] ;
5 -> 7 ;
8 [label="mean concave points <= 0.043\ngini = 0.106\nsamples = 142\nvalue = [134, 8]\nclass = 악성", fillcolor="#e78945"] ;
0 -> 8 [labeldistance=2.5, labelangle=-45, headlabel="False"] ;
9 [label="worst texture <= 26.03\ngini = 0.5\nsamples = 12\nvalue = [6, 6]\nclass = 악성", fillcolor="#ffffff"] ;
8 -> 9 ;
10 [label="gini = 0.0\nsamples = 5\nvalue = [0, 5]\nclass = 양성", fillcolor="#399de5"] ;
9 -> 10 ;
11 [label="gini = 0.245\nsamples = 7\nvalue = [6, 1]\nclass = 악성", fillcolor="#e9965a"] ;
9 -> 11 ;
12 [label="worst concavity <= 0.182\ngini = 0.03\nsamples = 130\nvalue = [128, 2]\nclass = 악성", fillcolor="#e5833c"] ;
8 -> 12 ;
13 [label="gini = 0.0\nsamples = 1\nvalue = [0, 1]\nclass = 양성", fillcolor="#399de5"] ;
12 -> 13 ;
14 [label="gini = 0.015\nsamples = 129\nvalue = [128, 1]\nclass = 악성", fillcolor="#e5823b"] ;
12 -> 14 ;
}