digraph Tree {
node [shape=box, style="filled", color="black"] ;
0 [label="alcohol <= 10.85\ngini = 0.675\nsamples = 3673\nvalue = [15, 122, 1093, 1648, 660, 131, 4]", fillcolor="#d4f9f9"] ;
1 [label="volatile acidity <= 0.237\ngini = 0.624\nsamples = 2312\nvalue = [8, 96, 963, 1017, 202, 25, 1]", fillcolor="#f7fefe"] ;
0 -> 1 [labeldistance=2.5, labelangle=45, headlabel="True"] ;
2 [label="sulphates <= 0.475\ngini = 0.609\nsamples = 866\nvalue = [2, 19, 203, 480, 144, 18, 0]", fillcolor="#acf4f3"] ;
1 -> 2 ;
3 [label="fixed acidity <= 6.55\ngini = 0.641\nsamples = 447\nvalue = [2, 12, 129, 225, 64, 15, 0]", fillcolor="#c3f7f6"] ;
2 -> 3 ;
4 [label="alcohol <= 10.55\ngini = 0.575\nsamples = 136\nvalue = [1, 2, 62, 63, 7, 1, 0]", fillcolor="#fcffff"] ;
3 -> 4 ;
5 [label="alcohol <= 9.85\ngini = 0.561\nsamples = 115\nvalue = [1, 2, 48, 59, 4, 1, 0]", fillcolor="#defbfa"] ;
4 -> 5 ;
6 [label="pH <= 3.245\ngini = 0.534\nsamples = 79\nvalue = [1, 1, 41, 35, 1, 0, 0]", fillcolor="#e4fbe7"] ;
5 -> 6 ;
7 [label="residual sugar <= 10.35\ngini = 0.486\nsamples = 40\nvalue = [0, 1, 14, 25, 0, 0, 0]", fillcolor="#abf4f3"] ;
6 -> 7 ;
8 [label="chlorides <= 0.041\ngini = 0.483\nsamples = 22\nvalue = [0, 0, 13, 9, 0, 0, 0]", fillcolor="#c2f7c8"] ;
7 -> 8 ;
9 [label="gini = 0.0\nsamples = 4\nvalue = [0, 0, 0, 4, 0, 0, 0]", fillcolor="#39e5e2"] ;
8 -> 9 ;
10 [label="citric acid <= 0.465\ngini = 0.401\nsamples = 18\nvalue = [0, 0, 13, 5, 0, 0, 0]", fillcolor="#85ef91"] ;
8 -> 10 ;
11 [label="gini = 0.0\nsamples = 10\nvalue = [0, 0, 10, 0, 0, 0, 0]", fillcolor="#39e54d"] ;
10 -> 11 ;
12 [label="gini = 0.469\nsamples = 8\nvalue = [0, 0, 3, 5, 0, 0, 0]", fillcolor="#b0f5f3"] ;
10 -> 12 ;
13 [label="volatile acidity <= 0.13\ngini = 0.204\nsamples = 18\nvalue = [0, 1, 1, 16, 0, 0, 0]", fillcolor="#50e8e5"] ;
7 -> 13 ;
14 [label="gini = 0.0\nsamples = 1\nvalue = [0, 1, 0, 0, 0, 0, 0]", fillcolor="#b7e539"] ;
13 -> 14 ;
15 [label="citric acid <= 0.53\ngini = 0.111\nsamples = 17\nvalue = [0, 0, 1, 16, 0, 0, 0]", fillcolor="#45e7e4"] ;
13 -> 15 ;
16 [label="gini = 0.0\nsamples = 16\nvalue = [0, 0, 0, 16, 0, 0, 0]", fillcolor="#39e5e2"] ;
15 -> 16 ;
17 [label="gini = 0.0\nsamples = 1\nvalue = [0, 0, 1, 0, 0, 0, 0]", fillcolor="#39e54d"] ;
15 -> 17 ;
18 [label="citric acid <= 0.2\ngini = 0.454\nsamples = 39\nvalue = [1, 0, 27, 10, 1, 0, 0]", fillcolor="#8bf097"] ;
6 -> 18 ;
19 [label="gini = 0.0\nsamples = 3\nvalue = [0, 0, 0, 3, 0, 0, 0]", fillcolor="#39e5e2"] ;
18 -> 19 ;
20 [label="sulphates <= 0.365\ngini = 0.398\nsamples = 36\nvalue = [1, 0, 27, 7, 1, 0, 0]", fillcolor="#76ed84"] ;
18 -> 20 ;
21 [label="gini = 0.0\nsamples = 3\nvalue = [0, 0, 0, 3, 0, 0, 0]", fillcolor="#39e5e2"] ;
20 -> 21 ;
22 [label="pH <= 3.405\ngini = 0.314\nsamples = 33\nvalue = [1, 0, 27, 4, 1, 0, 0]", fillcolor="#62ea72"] ;
20 -> 22 ;
23 [label="gini = 0.19\nsamples = 29\nvalue = [0, 0, 26, 2, 1, 0, 0]", fillcolor="#4fe861"] ;
22 -> 23 ;
24 [label="gini = 0.625\nsamples = 4\nvalue = [1, 0, 1, 2, 0, 0, 0]", fillcolor="#bdf6f5"] ;
22 -> 24 ;
25 [label="citric acid <= 0.215\ngini = 0.509\nsamples = 36\nvalue = [0, 1, 7, 24, 3, 1, 0]", fillcolor="#8bf0ee"] ;
5 -> 25 ;
26 [label="sulphates <= 0.36\ngini = 0.5\nsamples = 4\nvalue = [0, 0, 2, 0, 2, 0, 0]", fillcolor="#ffffff"] ;
25 -> 26 ;
27 [label="gini = 0.0\nsamples = 2\nvalue = [0, 0, 0, 0, 2, 0, 0]", fillcolor="#3956e5"] ;
26 -> 27 ;
28 [label="gini = 0.0\nsamples = 2\nvalue = [0, 0, 2, 0, 0, 0, 0]", fillcolor="#39e54d"] ;
26 -> 28 ;
29 [label="pH <= 3.11\ngini = 0.41\nsamples = 32\nvalue = [0, 1, 5, 24, 1, 1, 0]", fillcolor="#74edeb"] ;
25 -> 29 ;
30 [label="volatile acidity <= 0.16\ngini = 0.8\nsamples = 5\nvalue = [0, 1, 1, 1, 1, 1, 0]", fillcolor="#ffffff"] ;
29 -> 30 ;
31 [label="fixed acidity <= 6.05\ngini = 0.5\nsamples = 2\nvalue = [0, 0, 1, 0, 0, 1, 0]", fillcolor="#ffffff"] ;
30 -> 31 ;
32 [label="gini = 0.0\nsamples = 1\nvalue = [0, 0, 0, 0, 0, 1, 0]", fillcolor="#b139e5"] ;
31 -> 32 ;
33 [label="gini = 0.0\nsamples = 1\nvalue = [0, 0, 1, 0, 0, 0, 0]", fillcolor="#39e54d"] ;
31 -> 33 ;
34 [label="sulphates <= 0.44\ngini = 0.667\nsamples = 3\nvalue = [0, 1, 0, 1, 1, 0, 0]", fillcolor="#ffffff"] ;
30 -> 34 ;
35 [label="gini = 0.0\nsamples = 1\nvalue = [0, 0, 0, 0, 1, 0, 0]", fillcolor="#3956e5"] ;
34 -> 35 ;
36 [label="gini = 0.5\nsamples = 2\nvalue = [0, 1, 0, 1, 0, 0, 0]", fillcolor="#ffffff"] ;
34 -> 36 ;
37 [label="alcohol <= 10.45\ngini = 0.252\nsamples = 27\nvalue = [0, 0, 4, 23, 0, 0, 0]", fillcolor="#5beae7"] ;
29 -> 37 ;
38 [label="residual sugar <= 1.25\ngini = 0.091\nsamples = 21\nvalue = [0, 0, 1, 20, 0, 0, 0]", fillcolor="#43e6e3"] ;
37 -> 38 ;
39 [label="gini = 0.444\nsamples = 3\nvalue = [0, 0, 1, 2, 0, 0, 0]", fillcolor="#9cf2f0"] ;
38 -> 39 ;
40 [label="gini = 0.0\nsamples = 18\nvalue = [0, 0, 0, 18, 0, 0, 0]", fillcolor="#39e5e2"] ;
38 -> 40 ;
41 [label="volatile acidity <= 0.155\ngini = 0.5\nsamples = 6\nvalue = [0, 0, 3, 3, 0, 0, 0]", fillcolor="#ffffff"] ;
37 -> 41 ;
42 [label="gini = 0.0\nsamples = 3\nvalue = [0, 0, 0, 3, 0, 0, 0]", fillcolor="#39e5e2"] ;
41 -> 42 ;
43 [label="gini = 0.0\nsamples = 3\nvalue = [0, 0, 3, 0, 0, 0, 0]", fillcolor="#39e54d"] ;
41 -> 43 ;
44 [label="pH <= 3.25\ngini = 0.499\nsamples = 21\nvalue = [0, 0, 14, 4, 3, 0, 0]", fillcolor="#8bf096"] ;
4 -> 44 ;
45 [label="gini = 0.0\nsamples = 13\nvalue = [0, 0, 13, 0, 0, 0, 0]", fillcolor="#39e54d"] ;
44 -> 45 ;
46 [label="chlorides <= 0.045\ngini = 0.594\nsamples = 8\nvalue = [0, 0, 1, 4, 3, 0, 0]", fillcolor="#d7faf9"] ;
44 -> 46 ;
47 [label="volatile acidity <= 0.165\ngini = 0.375\nsamples = 4\nvalue = [0, 0, 1, 0, 3, 0, 0]", fillcolor="#7b8eee"] ;
46 -> 47 ;
48 [label="gini = 0.0\nsamples = 1\nvalue = [0, 0, 1, 0, 0, 0, 0]", fillcolor="#39e54d"] ;
47 -> 48 ;
49 [label="gini = 0.0\nsamples = 3\nvalue = [0, 0, 0, 0, 3, 0, 0]", fillcolor="#3956e5"] ;
47 -> 49 ;
50 [label="gini = 0.0\nsamples = 4\nvalue = [0, 0, 0, 4, 0, 0, 0]", fillcolor="#39e5e2"] ;
46 -> 50 ;
51 [label="pH <= 2.975\ngini = 0.646\nsamples = 311\nvalue = [1, 10, 67, 162, 57, 14, 0]", fillcolor="#b2f5f4"] ;
3 -> 51 ;
52 [label="density <= 0.998\ngini = 0.733\nsamples = 55\nvalue = [1, 2, 11, 16, 20, 5, 0]", fillcolor="#ebeefc"] ;
51 -> 52 ;
53 [label="residual sugar <= 14.65\ngini = 0.745\nsamples = 43\nvalue = [1, 2, 11, 16, 8, 5, 0]", fillcolor="#e0fbfa"] ;
52 -> 53 ;
54 [label="density <= 0.998\ngini = 0.7\nsamples = 37\nvalue = [1, 2, 11, 16, 2, 5, 0]", fillcolor="#d9faf9"] ;
53 -> 54 ;
55 [label="total sulfur dioxide <= 130.5\ngini = 0.623\nsamples = 32\nvalue = [1, 2, 11, 16, 2, 0, 0]", fillcolor="#d0f9f8"] ;
54 -> 55 ;
56 [label="density <= 0.992\ngini = 0.633\nsamples = 16\nvalue = [1, 2, 9, 2, 2, 0, 0]", fillcolor="#9cf2a6"] ;
55 -> 56 ;
57 [label="gini = 0.0\nsamples = 2\nvalue = [0, 0, 0, 0, 2, 0, 0]", fillcolor="#3956e5"] ;
56 -> 57 ;
58 [label="gini = 0.541\nsamples = 14\nvalue = [1, 2, 9, 2, 0, 0, 0]", fillcolor="#8cf097"] ;
56 -> 58 ;
59 [label="citric acid <= 0.485\ngini = 0.219\nsamples = 16\nvalue = [0, 0, 2, 14, 0, 0, 0]", fillcolor="#55e9e6"] ;
55 -> 59 ;
60 [label="gini = 0.0\nsamples = 14\nvalue = [0, 0, 0, 14, 0, 0, 0]", fillcolor="#39e5e2"] ;
59 -> 60 ;
61 [label="gini = 0.0\nsamples = 2\nvalue = [0, 0, 2, 0, 0, 0, 0]", fillcolor="#39e54d"] ;
59 -> 61 ;
62 [label="gini = 0.0\nsamples = 5\nvalue = [0, 0, 0, 0, 0, 5, 0]", fillcolor="#b139e5"] ;
54 -> 62 ;
63 [label="gini = 0.0\nsamples = 6\nvalue = [0, 0, 0, 0, 6, 0, 0]", fillcolor="#3956e5"] ;
53 -> 63 ;
64 [label="gini = 0.0\nsamples = 12\nvalue = [0, 0, 0, 0, 12, 0, 0]", fillcolor="#3956e5"] ;
52 -> 64 ;
65 [label="residual sugar <= 17.65\ngini = 0.604\nsamples = 256\nvalue = [0, 8, 56, 146, 37, 9, 0]", fillcolor="#a6f3f2"] ;
51 -> 65 ;
66 [label="total sulfur dioxide <= 212.25\ngini = 0.596\nsamples = 247\nvalue = [0, 8, 49, 144, 37, 9, 0]", fillcolor="#a0f3f1"] ;
65 -> 66 ;
67 [label="residual sugar <= 15.575\ngini = 0.587\nsamples = 244\nvalue = [0, 8, 49, 144, 37, 6, 0]", fillcolor="#9ff2f1"] ;
66 -> 67 ;
68 [label="density <= 0.999\ngini = 0.612\nsamples = 225\nvalue = [0, 8, 48, 126, 37, 6, 0]", fillcolor="#a8f4f2"] ;
67 -> 68 ;
69 [label="alcohol <= 9.75\ngini = 0.602\nsamples = 217\nvalue = [0, 8, 48, 124, 31, 6, 0]", fillcolor="#a6f3f2"] ;
68 -> 69 ;
70 [label="gini = 0.605\nsamples = 80\nvalue = [0, 4, 28, 41, 7, 0, 0]", fillcolor="#cef8f8"] ;
69 -> 70 ;
71 [label="gini = 0.578\nsamples = 137\nvalue = [0, 4, 20, 83, 24, 6, 0]", fillcolor="#98f1f0"] ;
69 -> 71 ;
72 [label="volatile acidity <= 0.185\ngini = 0.375\nsamples = 8\nvalue = [0, 0, 0, 2, 6, 0, 0]", fillcolor="#7b8eee"] ;
68 -> 72 ;
73 [label="gini = 0.0\nsamples = 2\nvalue = [0, 0, 0, 2, 0, 0, 0]", fillcolor="#39e5e2"] ;
72 -> 73 ;
74 [label="gini = 0.0\nsamples = 6\nvalue = [0, 0, 0, 0, 6, 0, 0]", fillcolor="#3956e5"] ;
72 -> 74 ;
75 [label="density <= 0.998\ngini = 0.1\nsamples = 19\nvalue = [0, 0, 1, 18, 0, 0, 0]", fillcolor="#44e6e4"] ;
67 -> 75 ;
76 [label="gini = 0.0\nsamples = 1\nvalue = [0, 0, 1, 0, 0, 0, 0]", fillcolor="#39e54d"] ;
75 -> 76 ;
77 [label="gini = 0.0\nsamples = 18\nvalue = [0, 0, 0, 18, 0, 0, 0]", fillcolor="#39e5e2"] ;
75 -> 77 ;
78 [label="gini = 0.0\nsamples = 3\nvalue = [0, 0, 0, 0, 0, 3, 0]", fillcolor="#b139e5"] ;
66 -> 78 ;
79 [label="fixed acidity <= 6.7\ngini = 0.346\nsamples = 9\nvalue = [0, 0, 7, 2, 0, 0, 0]", fillcolor="#72ec80"] ;
65 -> 79 ;
80 [label="gini = 0.0\nsamples = 2\nvalue = [0, 0, 0, 2, 0, 0, 0]", fillcolor="#39e5e2"] ;
79 -> 80 ;
81 [label="gini = 0.0\nsamples = 7\nvalue = [0, 0, 7, 0, 0, 0, 0]", fillcolor="#39e54d"] ;
79 -> 81 ;
82 [label="sulphates <= 0.845\ngini = 0.562\nsamples = 419\nvalue = [0, 7, 74, 255, 80, 3, 0]", fillcolor="#99f2f0"] ;
2 -> 82 ;
83 [label="chlorides <= 0.065\ngini = 0.554\nsamples = 413\nvalue = [0, 7, 73, 255, 75, 3, 0]", fillcolor="#96f1f0"] ;
82 -> 83 ;
84 [label="chlorides <= 0.032\ngini = 0.547\nsamples = 403\nvalue = [0, 7, 66, 252, 75, 3, 0]", fillcolor="#94f1ef"] ;
83 -> 84 ;
85 [label="free sulfur dioxide <= 52.5\ngini = 0.1\nsamples = 19\nvalue = [0, 0, 0, 18, 1, 0, 0]", fillcolor="#44e6e4"] ;
84 -> 85 ;
86 [label="gini = 0.0\nsamples = 18\nvalue = [0, 0, 0, 18, 0, 0, 0]", fillcolor="#39e5e2"] ;
85 -> 86 ;
87 [label="gini = 0.0\nsamples = 1\nvalue = [0, 0, 0, 0, 1, 0, 0]", fillcolor="#3956e5"] ;
85 -> 87 ;
88 [label="density <= 0.993\ngini = 0.562\nsamples = 384\nvalue = [0, 7, 66, 234, 74, 3, 0]", fillcolor="#99f2f0"] ;
84 -> 88 ;
89 [label="sulphates <= 0.525\ngini = 0.672\nsamples = 51\nvalue = [0, 0, 16, 20, 14, 1, 0]", fillcolor="#e8fcfc"] ;
88 -> 89 ;
90 [label="density <= 0.992\ngini = 0.541\nsamples = 22\nvalue = [0, 0, 13, 7, 2, 0, 0]", fillcolor="#b0f5b8"] ;
89 -> 90 ;
91 [label="alcohol <= 10.65\ngini = 0.449\nsamples = 7\nvalue = [0, 0, 1, 5, 1, 0, 0]", fillcolor="#7beeec"] ;
90 -> 91 ;
92 [label="gini = 0.278\nsamples = 6\nvalue = [0, 0, 1, 5, 0, 0, 0]", fillcolor="#61eae8"] ;
91 -> 92 ;
93 [label="gini = 0.0\nsamples = 1\nvalue = [0, 0, 0, 0, 1, 0, 0]", fillcolor="#3956e5"] ;
91 -> 93 ;
94 [label="free sulfur dioxide <= 64.5\ngini = 0.338\nsamples = 15\nvalue = [0, 0, 12, 2, 1, 0, 0]", fillcolor="#67eb76"] ;
90 -> 94 ;
95 [label="gini = 0.255\nsamples = 14\nvalue = [0, 0, 12, 1, 1, 0, 0]", fillcolor="#57e968"] ;
94 -> 95 ;
96 [label="gini = 0.0\nsamples = 1\nvalue = [0, 0, 0, 1, 0, 0, 0]", fillcolor="#39e5e2"] ;
94 -> 96 ;
97 [label="chlorides <= 0.042\ngini = 0.616\nsamples = 29\nvalue = [0, 0, 3, 13, 12, 1, 0]", fillcolor="#f3fdfd"] ;
89 -> 97 ;
98 [label="density <= 0.992\ngini = 0.585\nsamples = 20\nvalue = [0, 0, 3, 6, 11, 0, 0]", fillcolor="#b8c3f6"] ;
97 -> 98 ;
99 [label="gini = 0.298\nsamples = 11\nvalue = [0, 0, 2, 0, 9, 0, 0]", fillcolor="#657ceb"] ;
98 -> 99 ;
100 [label="gini = 0.494\nsamples = 9\nvalue = [0, 0, 1, 6, 2, 0, 0]", fillcolor="#8ef0ee"] ;
98 -> 100 ;
101 [label="density <= 0.992\ngini = 0.37\nsamples = 9\nvalue = [0, 0, 0, 7, 1, 1, 0]", fillcolor="#6aece9"] ;
97 -> 101 ;
102 [label="gini = 0.0\nsamples = 7\nvalue = [0, 0, 0, 7, 0, 0, 0]", fillcolor="#39e5e2"] ;
101 -> 102 ;
103 [label="gini = 0.5\nsamples = 2\nvalue = [0, 0, 0, 0, 1, 1, 0]", fillcolor="#ffffff"] ;
101 -> 103 ;
104 [label="fixed acidity <= 6.65\ngini = 0.532\nsamples = 333\nvalue = [0, 7, 50, 214, 60, 2, 0]", fillcolor="#8ff0ef"] ;
88 -> 104 ;
105 [label="alcohol <= 10.117\ngini = 0.395\nsamples = 100\nvalue = [0, 1, 10, 76, 13, 0, 0]", fillcolor="#70ecea"] ;
104 -> 105 ;
106 [label="pH <= 3.685\ngini = 0.258\nsamples = 67\nvalue = [0, 1, 9, 57, 0, 0, 0]", fillcolor="#5be9e7"] ;
105 -> 106 ;
107 [label="gini = 0.236\nsamples = 66\nvalue = [0, 0, 9, 57, 0, 0, 0]", fillcolor="#58e9e7"] ;
106 -> 107 ;
108 [label="gini = 0.0\nsamples = 1\nvalue = [0, 1, 0, 0, 0, 0, 0]", fillcolor="#b7e539"] ;
106 -> 108 ;
109 [label="chlorides <= 0.042\ngini = 0.512\nsamples = 33\nvalue = [0, 0, 1, 19, 13, 0, 0]", fillcolor="#c4f7f6"] ;
105 -> 109 ;
110 [label="gini = 0.43\nsamples = 16\nvalue = [0, 0, 0, 5, 11, 0, 0]", fillcolor="#93a3f1"] ;
109 -> 110 ;
111 [label="gini = 0.304\nsamples = 17\nvalue = [0, 0, 1, 14, 2, 0, 0]", fillcolor="#61eae8"] ;
109 -> 111 ;
112 [label="free sulfur dioxide <= 19.5\ngini = 0.578\nsamples = 233\nvalue = [0, 6, 40, 138, 47, 2, 0]", fillcolor="#9ef2f1"] ;
104 -> 112 ;
113 [label="alcohol <= 9.05\ngini = 0.688\nsamples = 23\nvalue = [0, 2, 10, 6, 5, 0, 0]", fillcolor="#d0f9d5"] ;
112 -> 113 ;
114 [label="gini = 0.0\nsamples = 5\nvalue = [0, 0, 0, 0, 5, 0, 0]", fillcolor="#3956e5"] ;
113 -> 114 ;
115 [label="gini = 0.568\nsamples = 18\nvalue = [0, 2, 10, 6, 0, 0, 0]", fillcolor="#bdf6c4"] ;
113 -> 115 ;
116 [label="alcohol <= 8.7\ngini = 0.544\nsamples = 210\nvalue = [0, 4, 30, 132, 42, 2, 0]", fillcolor="#95f1ef"] ;
112 -> 116 ;
117 [label="gini = 0.375\nsamples = 4\nvalue = [0, 0, 0, 0, 3, 1, 0]", fillcolor="#7b8eee"] ;
116 -> 117 ;
118 [label="gini = 0.532\nsamples = 206\nvalue = [0, 4, 30, 132, 39, 1, 0]", fillcolor="#91f1ef"] ;
116 -> 118 ;
119 [label="volatile acidity <= 0.2\ngini = 0.42\nsamples = 10\nvalue = [0, 0, 7, 3, 0, 0, 0]", fillcolor="#8ef099"] ;
83 -> 119 ;
120 [label="chlorides <= 0.078\ngini = 0.375\nsamples = 4\nvalue = [0, 0, 1, 3, 0, 0, 0]", fillcolor="#7beeec"] ;
119 -> 120 ;
121 [label="gini = 0.0\nsamples = 1\nvalue = [0, 0, 1, 0, 0, 0, 0]", fillcolor="#39e54d"] ;
120 -> 121 ;
122 [label="gini = 0.0\nsamples = 3\nvalue = [0, 0, 0, 3, 0, 0, 0]", fillcolor="#39e5e2"] ;
120 -> 122 ;
123 [label="gini = 0.0\nsamples = 6\nvalue = [0, 0, 6, 0, 0, 0, 0]", fillcolor="#39e54d"] ;
119 -> 123 ;
124 [label="alcohol <= 10.45\ngini = 0.278\nsamples = 6\nvalue = [0, 0, 1, 0, 5, 0, 0]", fillcolor="#6178ea"] ;
82 -> 124 ;
125 [label="gini = 0.0\nsamples = 5\nvalue = [0, 0, 0, 0, 5, 0, 0]", fillcolor="#3956e5"] ;
124 -> 125 ;
126 [label="gini = 0.0\nsamples = 1\nvalue = [0, 0, 1, 0, 0, 0, 0]", fillcolor="#39e54d"] ;
124 -> 126 ;
127 [label="alcohol <= 9.85\ngini = 0.581\nsamples = 1446\nvalue = [6, 77, 760, 537, 58, 7, 1]", fillcolor="#cef9d3"] ;
1 -> 127 ;
128 [label="citric acid <= 0.265\ngini = 0.518\nsamples = 913\nvalue = [3, 42, 565, 284, 18, 1, 0]", fillcolor="#a7f3af"] ;
127 -> 128 ;
129 [label="pH <= 3.43\ngini = 0.454\nsamples = 315\nvalue = [2, 24, 222, 66, 1, 0, 0]", fillcolor="#83ef8f"] ;
128 -> 129 ;
130 [label="chlorides <= 0.057\ngini = 0.427\nsamples = 304\nvalue = [2, 19, 221, 61, 1, 0, 0]", fillcolor="#7dee8a"] ;
129 -> 130 ;
131 [label="total sulfur dioxide <= 226.0\ngini = 0.349\nsamples = 230\nvalue = [1, 8, 181, 40, 0, 0, 0]", fillcolor="#6cec7b"] ;
130 -> 131 ;
132 [label="citric acid <= 0.005\ngini = 0.33\nsamples = 223\nvalue = [1, 8, 179, 35, 0, 0, 0]", fillcolor="#67eb77"] ;
131 -> 132 ;
133 [label="gini = 0.0\nsamples = 2\nvalue = [0, 2, 0, 0, 0, 0, 0]", fillcolor="#b7e539"] ;
132 -> 133 ;
134 [label="chlorides <= 0.033\ngini = 0.318\nsamples = 221\nvalue = [1, 6, 179, 35, 0, 0, 0]", fillcolor="#66eb75"] ;
132 -> 134 ;
135 [label="free sulfur dioxide <= 27.5\ngini = 0.375\nsamples = 4\nvalue = [0, 0, 1, 3, 0, 0, 0]", fillcolor="#7beeec"] ;
134 -> 135 ;
136 [label="gini = 0.0\nsamples = 1\nvalue = [0, 0, 1, 0, 0, 0, 0]", fillcolor="#39e54d"] ;
135 -> 136 ;
137 [label="gini = 0.0\nsamples = 3\nvalue = [0, 0, 0, 3, 0, 0, 0]", fillcolor="#39e5e2"] ;
135 -> 137 ;
138 [label="fixed acidity <= 7.55\ngini = 0.305\nsamples = 217\nvalue = [1, 6, 178, 32, 0, 0, 0]", fillcolor="#63ea73"] ;
134 -> 138 ;
139 [label="gini = 0.267\nsamples = 200\nvalue = [1, 3, 169, 27, 0, 0, 0]", fillcolor="#5cea6d"] ;
138 -> 139 ;
140 [label="gini = 0.602\nsamples = 17\nvalue = [0, 3, 9, 5, 0, 0, 0]", fillcolor="#bdf6c4"] ;
138 -> 140 ;
141 [label="volatile acidity <= 0.355\ngini = 0.408\nsamples = 7\nvalue = [0, 0, 2, 5, 0, 0, 0]", fillcolor="#88efee"] ;
131 -> 141 ;
142 [label="gini = 0.0\nsamples = 5\nvalue = [0, 0, 0, 5, 0, 0, 0]", fillcolor="#39e5e2"] ;
141 -> 142 ;
143 [label="gini = 0.0\nsamples = 2\nvalue = [0, 0, 2, 0, 0, 0, 0]", fillcolor="#39e54d"] ;
141 -> 143 ;
144 [label="chlorides <= 0.064\ngini = 0.605\nsamples = 74\nvalue = [1, 11, 40, 21, 1, 0, 0]", fillcolor="#b8f6bf"] ;
130 -> 144 ;
145 [label="sulphates <= 0.375\ngini = 0.671\nsamples = 28\nvalue = [0, 7, 8, 12, 1, 0, 0]", fillcolor="#d7faf9"] ;
144 -> 145 ;
146 [label="gini = 0.0\nsamples = 3\nvalue = [0, 3, 0, 0, 0, 0, 0]", fillcolor="#b7e539"] ;
145 -> 146 ;
147 [label="volatile acidity <= 0.275\ngini = 0.64\nsamples = 25\nvalue = [0, 4, 8, 12, 1, 0, 0]", fillcolor="#d0f9f8"] ;
145 -> 147 ;
148 [label="gini = 0.0\nsamples = 3\nvalue = [0, 0, 3, 0, 0, 0, 0]", fillcolor="#39e54d"] ;
147 -> 148 ;
149 [label="chlorides <= 0.059\ngini = 0.616\nsamples = 22\nvalue = [0, 4, 5, 12, 1, 0, 0]", fillcolor="#adf4f3"] ;
147 -> 149 ;
150 [label="gini = 0.0\nsamples = 6\nvalue = [0, 0, 0, 6, 0, 0, 0]", fillcolor="#39e5e2"] ;
149 -> 150 ;
151 [label="gini = 0.695\nsamples = 16\nvalue = [0, 4, 5, 6, 1, 0, 0]", fillcolor="#edfdfc"] ;
149 -> 151 ;
152 [label="total sulfur dioxide <= 157.5\ngini = 0.47\nsamples = 46\nvalue = [1, 4, 32, 9, 0, 0, 0]", fillcolor="#84ef90"] ;
144 -> 152 ;
153 [label="volatile acidity <= 0.53\ngini = 0.218\nsamples = 25\nvalue = [0, 2, 22, 1, 0, 0, 0]", fillcolor="#53e864"] ;
152 -> 153 ;
154 [label="volatile acidity <= 0.285\ngini = 0.091\nsamples = 21\nvalue = [0, 0, 20, 1, 0, 0, 0]", fillcolor="#43e656"] ;
153 -> 154 ;
155 [label="gini = 0.375\nsamples = 4\nvalue = [0, 0, 3, 1, 0, 0, 0]", fillcolor="#7bee88"] ;
154 -> 155 ;
156 [label="gini = 0.0\nsamples = 17\nvalue = [0, 0, 17, 0, 0, 0, 0]", fillcolor="#39e54d"] ;
154 -> 156 ;
157 [label="total sulfur dioxide <= 148.5\ngini = 0.5\nsamples = 4\nvalue = [0, 2, 2, 0, 0, 0, 0]", fillcolor="#ffffff"] ;
153 -> 157 ;
158 [label="gini = 0.0\nsamples = 2\nvalue = [0, 0, 2, 0, 0, 0, 0]", fillcolor="#39e54d"] ;
157 -> 158 ;
159 [label="gini = 0.0\nsamples = 2\nvalue = [0, 2, 0, 0, 0, 0, 0]", fillcolor="#b7e539"] ;
157 -> 159 ;
160 [label="free sulfur dioxide <= 34.0\ngini = 0.617\nsamples = 21\nvalue = [1, 2, 10, 8, 0, 0, 0]", fillcolor="#e1fbe4"] ;
152 -> 160 ;
161 [label="pH <= 3.295\ngini = 0.37\nsamples = 9\nvalue = [0, 1, 1, 7, 0, 0, 0]", fillcolor="#6aece9"] ;
160 -> 161 ;
162 [label="gini = 0.219\nsamples = 8\nvalue = [0, 0, 1, 7, 0, 0, 0]", fillcolor="#55e9e6"] ;
161 -> 162 ;
163 [label="gini = 0.0\nsamples = 1\nvalue = [0, 1, 0, 0, 0, 0, 0]", fillcolor="#b7e539"] ;
161 -> 163 ;
164 [label="residual sugar <= 1.375\ngini = 0.417\nsamples = 12\nvalue = [1, 1, 9, 1, 0, 0, 0]", fillcolor="#6fec7e"] ;
160 -> 164 ;
165 [label="gini = 0.0\nsamples = 1\nvalue = [0, 1, 0, 0, 0, 0, 0]", fillcolor="#b7e539"] ;
164 -> 165 ;
166 [label="gini = 0.314\nsamples = 11\nvalue = [1, 0, 9, 1, 0, 0, 0]", fillcolor="#61ea71"] ;
164 -> 166 ;
167 [label="density <= 0.998\ngini = 0.579\nsamples = 11\nvalue = [0, 5, 1, 5, 0, 0, 0]", fillcolor="#ffffff"] ;
129 -> 167 ;
168 [label="fixed acidity <= 6.5\ngini = 0.449\nsamples = 7\nvalue = [0, 5, 1, 1, 0, 0, 0]", fillcolor="#cfee7b"] ;
167 -> 168 ;
169 [label="volatile acidity <= 0.265\ngini = 0.278\nsamples = 6\nvalue = [0, 5, 0, 1, 0, 0, 0]", fillcolor="#c5ea61"] ;
168 -> 169 ;
170 [label="alcohol <= 9.65\ngini = 0.5\nsamples = 2\nvalue = [0, 1, 0, 1, 0, 0, 0]", fillcolor="#ffffff"] ;
169 -> 170 ;
171 [label="gini = 0.0\nsamples = 1\nvalue = [0, 1, 0, 0, 0, 0, 0]", fillcolor="#b7e539"] ;
170 -> 171 ;
172 [label="gini = 0.0\nsamples = 1\nvalue = [0, 0, 0, 1, 0, 0, 0]", fillcolor="#39e5e2"] ;
170 -> 172 ;
173 [label="gini = 0.0\nsamples = 4\nvalue = [0, 4, 0, 0, 0, 0, 0]", fillcolor="#b7e539"] ;
169 -> 173 ;
174 [label="gini = 0.0\nsamples = 1\nvalue = [0, 0, 1, 0, 0, 0, 0]", fillcolor="#39e54d"] ;
168 -> 174 ;
175 [label="gini = 0.0\nsamples = 4\nvalue = [0, 0, 0, 4, 0, 0, 0]", fillcolor="#39e5e2"] ;
167 -> 175 ;
176 [label="volatile acidity <= 0.303\ngini = 0.536\nsamples = 598\nvalue = [1, 18, 343, 218, 17, 1, 0]", fillcolor="#bef6c4"] ;
128 -> 176 ;
177 [label="alcohol <= 8.75\ngini = 0.554\nsamples = 324\nvalue = [0, 5, 165, 139, 14, 1, 0]", fillcolor="#e3fbe6"] ;
176 -> 177 ;
178 [label="chlorides <= 0.068\ngini = 0.172\nsamples = 21\nvalue = [0, 0, 19, 2, 0, 0, 0]", fillcolor="#4ee860"] ;
177 -> 178 ;
179 [label="total sulfur dioxide <= 236.5\ngini = 0.095\nsamples = 20\nvalue = [0, 0, 19, 1, 0, 0, 0]", fillcolor="#43e656"] ;
178 -> 179 ;
180 [label="gini = 0.0\nsamples = 17\nvalue = [0, 0, 17, 0, 0, 0, 0]", fillcolor="#39e54d"] ;
179 -> 180 ;
181 [label="fixed acidity <= 7.2\ngini = 0.444\nsamples = 3\nvalue = [0, 0, 2, 1, 0, 0, 0]", fillcolor="#9cf2a6"] ;
179 -> 181 ;
182 [label="gini = 0.0\nsamples = 2\nvalue = [0, 0, 2, 0, 0, 0, 0]", fillcolor="#39e54d"] ;
181 -> 182 ;
183 [label="gini = 0.0\nsamples = 1\nvalue = [0, 0, 0, 1, 0, 0, 0]", fillcolor="#39e5e2"] ;
181 -> 183 ;
184 [label="gini = 0.0\nsamples = 1\nvalue = [0, 0, 0, 1, 0, 0, 0]", fillcolor="#39e5e2"] ;
178 -> 184 ;
185 [label="total sulfur dioxide <= 172.5\ngini = 0.561\nsamples = 303\nvalue = [0, 5, 146, 137, 14, 1, 0]", fillcolor="#f4fef5"] ;
177 -> 185 ;
186 [label="chlorides <= 0.053\ngini = 0.502\nsamples = 127\nvalue = [0, 1, 49, 75, 1, 1, 0]", fillcolor="#bdf6f5"] ;
185 -> 186 ;
187 [label="pH <= 3.345\ngini = 0.394\nsamples = 74\nvalue = [0, 0, 17, 55, 1, 1, 0]", fillcolor="#7beeec"] ;
186 -> 187 ;
188 [label="volatile acidity <= 0.242\ngini = 0.342\nsamples = 67\nvalue = [0, 0, 12, 53, 1, 1, 0]", fillcolor="#6bece9"] ;
187 -> 188 ;
189 [label="gini = 0.32\nsamples = 5\nvalue = [0, 0, 4, 1, 0, 0, 0]", fillcolor="#6aec79"] ;
188 -> 189 ;
190 [label="gini = 0.279\nsamples = 62\nvalue = [0, 0, 8, 52, 1, 1, 0]", fillcolor="#5eeae7"] ;
188 -> 190 ;
191 [label="free sulfur dioxide <= 30.5\ngini = 0.408\nsamples = 7\nvalue = [0, 0, 5, 2, 0, 0, 0]", fillcolor="#88ef94"] ;
187 -> 191 ;
192 [label="gini = 0.0\nsamples = 2\nvalue = [0, 0, 0, 2, 0, 0, 0]", fillcolor="#39e5e2"] ;
191 -> 192 ;
193 [label="gini = 0.0\nsamples = 5\nvalue = [0, 0, 5, 0, 0, 0, 0]", fillcolor="#39e54d"] ;
191 -> 193 ;
194 [label="free sulfur dioxide <= 22.0\ngini = 0.493\nsamples = 53\nvalue = [0, 1, 32, 20, 0, 0, 0]", fillcolor="#b7f6be"] ;
186 -> 194 ;
195 [label="gini = 0.0\nsamples = 10\nvalue = [0, 0, 10, 0, 0, 0, 0]", fillcolor="#39e54d"] ;
194 -> 195 ;
196 [label="density <= 0.994\ngini = 0.521\nsamples = 43\nvalue = [0, 1, 22, 20, 0, 0, 0]", fillcolor="#eefdf0"] ;
194 -> 196 ;
197 [label="gini = 0.26\nsamples = 13\nvalue = [0, 0, 2, 11, 0, 0, 0]", fillcolor="#5deae7"] ;
196 -> 197 ;
198 [label="gini = 0.464\nsamples = 30\nvalue = [0, 1, 20, 9, 0, 0, 0]", fillcolor="#97f1a2"] ;
196 -> 198 ;
199 [label="fixed acidity <= 7.85\ngini = 0.566\nsamples = 176\nvalue = [0, 4, 97, 62, 13, 0, 0]", fillcolor="#c2f7c8"] ;
185 -> 199 ;
200 [label="residual sugar <= 14.1\ngini = 0.55\nsamples = 164\nvalue = [0, 3, 96, 52, 13, 0, 0]", fillcolor="#b1f5b9"] ;
199 -> 200 ;
201 [label="density <= 0.998\ngini = 0.51\nsamples = 131\nvalue = [0, 3, 78, 48, 2, 0, 0]", fillcolor="#b7f6bf"] ;
200 -> 201 ;
202 [label="gini = 0.479\nsamples = 111\nvalue = [0, 3, 72, 35, 1, 0, 0]", fillcolor="#9ff2a8"] ;
201 -> 202 ;
203 [label="gini = 0.485\nsamples = 20\nvalue = [0, 0, 6, 13, 1, 0, 0]", fillcolor="#9cf2f0"] ;
201 -> 203 ;
204 [label="fixed acidity <= 6.95\ngini = 0.577\nsamples = 33\nvalue = [0, 0, 18, 4, 11, 0, 0]", fillcolor="#c0f7c6"] ;
200 -> 204 ;
205 [label="gini = 0.165\nsamples = 11\nvalue = [0, 0, 10, 1, 0, 0, 0]", fillcolor="#4de85f"] ;
204 -> 205 ;
206 [label="gini = 0.599\nsamples = 22\nvalue = [0, 0, 8, 3, 11, 0, 0]", fillcolor="#d5dbf9"] ;
204 -> 206 ;
207 [label="density <= 1.0\ngini = 0.292\nsamples = 12\nvalue = [0, 1, 1, 10, 0, 0, 0]", fillcolor="#5deae7"] ;
199 -> 207 ;
208 [label="gini = 0.0\nsamples = 10\nvalue = [0, 0, 0, 10, 0, 0, 0]", fillcolor="#39e5e2"] ;
207 -> 208 ;
209 [label="residual sugar <= 15.3\ngini = 0.5\nsamples = 2\nvalue = [0, 1, 1, 0, 0, 0, 0]", fillcolor="#ffffff"] ;
207 -> 209 ;
210 [label="gini = 0.0\nsamples = 1\nvalue = [0, 0, 1, 0, 0, 0, 0]", fillcolor="#39e54d"] ;
209 -> 210 ;
211 [label="gini = 0.0\nsamples = 1\nvalue = [0, 1, 0, 0, 0, 0, 0]", fillcolor="#b7e539"] ;
209 -> 211 ;
212 [label="pH <= 3.065\ngini = 0.492\nsamples = 274\nvalue = [1, 13, 178, 79, 3, 0, 0]", fillcolor="#9af2a5"] ;
176 -> 212 ;
213 [label="citric acid <= 0.345\ngini = 0.276\nsamples = 69\nvalue = [0, 1, 58, 9, 1, 0, 0]", fillcolor="#5dea6e"] ;
212 -> 213 ;
214 [label="citric acid <= 0.285\ngini = 0.54\nsamples = 10\nvalue = [0, 0, 3, 6, 1, 0, 0]", fillcolor="#aaf4f3"] ;
213 -> 214 ;
215 [label="free sulfur dioxide <= 47.0\ngini = 0.444\nsamples = 3\nvalue = [0, 0, 2, 0, 1, 0, 0]", fillcolor="#9cf2a6"] ;
214 -> 215 ;
216 [label="gini = 0.0\nsamples = 2\nvalue = [0, 0, 2, 0, 0, 0, 0]", fillcolor="#39e54d"] ;
215 -> 216 ;
217 [label="gini = 0.0\nsamples = 1\nvalue = [0, 0, 0, 0, 1, 0, 0]", fillcolor="#3956e5"] ;
215 -> 217 ;
218 [label="sulphates <= 0.445\ngini = 0.245\nsamples = 7\nvalue = [0, 0, 1, 6, 0, 0, 0]", fillcolor="#5ae9e7"] ;
214 -> 218 ;
219 [label="gini = 0.0\nsamples = 1\nvalue = [0, 0, 1, 0, 0, 0, 0]", fillcolor="#39e54d"] ;
218 -> 219 ;
220 [label="gini = 0.0\nsamples = 6\nvalue = [0, 0, 0, 6, 0, 0, 0]", fillcolor="#39e5e2"] ;
218 -> 220 ;
221 [label="density <= 1.001\ngini = 0.128\nsamples = 59\nvalue = [0, 1, 55, 3, 0, 0, 0]", fillcolor="#47e75a"] ;
213 -> 221 ;
222 [label="density <= 0.998\ngini = 0.099\nsamples = 58\nvalue = [0, 1, 55, 2, 0, 0, 0]", fillcolor="#44e657"] ;
221 -> 222 ;
223 [label="gini = 0.0\nsamples = 37\nvalue = [0, 0, 37, 0, 0, 0, 0]", fillcolor="#39e54d"] ;
222 -> 223 ;
224 [label="density <= 0.998\ngini = 0.254\nsamples = 21\nvalue = [0, 1, 18, 2, 0, 0, 0]", fillcolor="#58e969"] ;
222 -> 224 ;
225 [label="gini = 0.444\nsamples = 3\nvalue = [0, 0, 1, 2, 0, 0, 0]", fillcolor="#9cf2f0"] ;
224 -> 225 ;
226 [label="gini = 0.105\nsamples = 18\nvalue = [0, 1, 17, 0, 0, 0, 0]", fillcolor="#45e757"] ;
224 -> 226 ;
227 [label="gini = 0.0\nsamples = 1\nvalue = [0, 0, 0, 1, 0, 0, 0]", fillcolor="#39e5e2"] ;
221 -> 227 ;
228 [label="free sulfur dioxide <= 19.5\ngini = 0.537\nsamples = 205\nvalue = [1, 12, 120, 70, 2, 0, 0]", fillcolor="#b6f5bd"] ;
212 -> 228 ;
229 [label="density <= 0.997\ngini = 0.48\nsamples = 30\nvalue = [0, 8, 20, 2, 0, 0, 0]", fillcolor="#93f19e"] ;
228 -> 229 ;
230 [label="free sulfur dioxide <= 9.5\ngini = 0.408\nsamples = 28\nvalue = [0, 8, 20, 0, 0, 0, 0]", fillcolor="#88ef94"] ;
229 -> 230 ;
231 [label="density <= 0.995\ngini = 0.469\nsamples = 8\nvalue = [0, 5, 3, 0, 0, 0, 0]", fillcolor="#e2f5b0"] ;
230 -> 231 ;
232 [label="gini = 0.0\nsamples = 5\nvalue = [0, 5, 0, 0, 0, 0, 0]", fillcolor="#b7e539"] ;
231 -> 232 ;
233 [label="gini = 0.0\nsamples = 3\nvalue = [0, 0, 3, 0, 0, 0, 0]", fillcolor="#39e54d"] ;
231 -> 233 ;
234 [label="density <= 0.996\ngini = 0.255\nsamples = 20\nvalue = [0, 3, 17, 0, 0, 0, 0]", fillcolor="#5cea6c"] ;
230 -> 234 ;
235 [label="gini = 0.105\nsamples = 18\nvalue = [0, 1, 17, 0, 0, 0, 0]", fillcolor="#45e757"] ;
234 -> 235 ;
236 [label="gini = 0.0\nsamples = 2\nvalue = [0, 2, 0, 0, 0, 0, 0]", fillcolor="#b7e539"] ;
234 -> 236 ;
237 [label="gini = 0.0\nsamples = 2\nvalue = [0, 0, 0, 2, 0, 0, 0]", fillcolor="#39e5e2"] ;
229 -> 237 ;
238 [label="chlorides <= 0.042\ngini = 0.522\nsamples = 175\nvalue = [1, 4, 100, 68, 2, 0, 0]", fillcolor="#c4f7ca"] ;
228 -> 238 ;
239 [label="fixed acidity <= 7.05\ngini = 0.492\nsamples = 29\nvalue = [0, 1, 8, 19, 1, 0, 0]", fillcolor="#97f1f0"] ;
238 -> 239 ;
240 [label="chlorides <= 0.039\ngini = 0.556\nsamples = 13\nvalue = [0, 0, 7, 5, 1, 0, 0]", fillcolor="#cef8d3"] ;
239 -> 240 ;
241 [label="gini = 0.46\nsamples = 10\nvalue = [0, 0, 7, 2, 1, 0, 0]", fillcolor="#83ef90"] ;
240 -> 241 ;
242 [label="gini = 0.0\nsamples = 3\nvalue = [0, 0, 0, 3, 0, 0, 0]", fillcolor="#39e5e2"] ;
240 -> 242 ;
243 [label="alcohol <= 8.75\ngini = 0.227\nsamples = 16\nvalue = [0, 1, 1, 14, 0, 0, 0]", fillcolor="#53e8e6"] ;
239 -> 243 ;
244 [label="gini = 0.0\nsamples = 1\nvalue = [0, 1, 0, 0, 0, 0, 0]", fillcolor="#b7e539"] ;
243 -> 244 ;
245 [label="gini = 0.124\nsamples = 15\nvalue = [0, 0, 1, 14, 0, 0, 0]", fillcolor="#47e7e4"] ;
243 -> 245 ;
246 [label="fixed acidity <= 6.65\ngini = 0.49\nsamples = 146\nvalue = [1, 3, 92, 49, 1, 0, 0]", fillcolor="#a7f3b0"] ;
238 -> 246 ;
247 [label="sulphates <= 0.495\ngini = 0.529\nsamples = 66\nvalue = [0, 1, 33, 31, 1, 0, 0]", fillcolor="#f4fef5"] ;
246 -> 247 ;
248 [label="gini = 0.393\nsamples = 26\nvalue = [0, 0, 19, 7, 0, 0, 0]", fillcolor="#82ef8f"] ;
247 -> 248 ;
249 [label="gini = 0.516\nsamples = 40\nvalue = [0, 1, 14, 24, 1, 0, 0]", fillcolor="#b3f5f4"] ;
247 -> 249 ;
250 [label="fixed acidity <= 8.35\ngini = 0.405\nsamples = 80\nvalue = [1, 2, 59, 18, 0, 0, 0]", fillcolor="#7cee89"] ;
246 -> 250 ;
251 [label="gini = 0.361\nsamples = 75\nvalue = [0, 2, 58, 15, 0, 0, 0]", fillcolor="#71ec7f"] ;
250 -> 251 ;
252 [label="gini = 0.56\nsamples = 5\nvalue = [1, 0, 1, 3, 0, 0, 0]", fillcolor="#9cf2f0"] ;
250 -> 252 ;
253 [label="free sulfur dioxide <= 22.5\ngini = 0.631\nsamples = 533\nvalue = [3, 35, 195, 253, 40, 6, 1]", fillcolor="#ddfbfa"] ;
127 -> 253 ;
254 [label="density <= 0.996\ngini = 0.622\nsamples = 161\nvalue = [1, 22, 80, 54, 3, 1, 0]", fillcolor="#cff9d4"] ;
253 -> 254 ;
255 [label="total sulfur dioxide <= 96.5\ngini = 0.612\nsamples = 152\nvalue = [1, 21, 80, 46, 3, 1, 0]", fillcolor="#bff7c6"] ;
254 -> 255 ;
256 [label="density <= 0.991\ngini = 0.58\nsamples = 53\nvalue = [1, 13, 31, 7, 0, 1, 0]", fillcolor="#a6f3af"] ;
255 -> 256 ;
257 [label="gini = 0.0\nsamples = 3\nvalue = [0, 0, 0, 3, 0, 0, 0]", fillcolor="#39e5e2"] ;
256 -> 257 ;
258 [label="citric acid <= 0.435\ngini = 0.541\nsamples = 50\nvalue = [1, 13, 31, 4, 0, 1, 0]", fillcolor="#9ff2a8"] ;
256 -> 258 ;
259 [label="alcohol <= 10.15\ngini = 0.481\nsamples = 42\nvalue = [1, 8, 29, 3, 0, 1, 0]", fillcolor="#85ef91"] ;
258 -> 259 ;
260 [label="chlorides <= 0.047\ngini = 0.628\nsamples = 11\nvalue = [0, 4, 5, 2, 0, 0, 0]", fillcolor="#e3fbe6"] ;
259 -> 260 ;
261 [label="gini = 0.48\nsamples = 5\nvalue = [0, 3, 0, 2, 0, 0, 0]", fillcolor="#e7f6bd"] ;
260 -> 261 ;
262 [label="gini = 0.278\nsamples = 6\nvalue = [0, 1, 5, 0, 0, 0, 0]", fillcolor="#61ea71"] ;
260 -> 262 ;
263 [label="total sulfur dioxide <= 95.5\ngini = 0.381\nsamples = 31\nvalue = [1, 4, 24, 1, 0, 1, 0]", fillcolor="#6cec7b"] ;
259 -> 263 ;
264 [label="gini = 0.34\nsamples = 30\nvalue = [1, 4, 24, 1, 0, 0, 0]", fillcolor="#67eb76"] ;
263 -> 264 ;
265 [label="gini = 0.0\nsamples = 1\nvalue = [0, 0, 0, 0, 0, 1, 0]", fillcolor="#b139e5"] ;
263 -> 265 ;
266 [label="chlorides <= 0.034\ngini = 0.531\nsamples = 8\nvalue = [0, 5, 2, 1, 0, 0, 0]", fillcolor="#dbf29c"] ;
258 -> 266 ;
267 [label="fixed acidity <= 8.35\ngini = 0.444\nsamples = 3\nvalue = [0, 0, 2, 1, 0, 0, 0]", fillcolor="#9cf2a6"] ;
266 -> 267 ;
268 [label="gini = 0.0\nsamples = 2\nvalue = [0, 0, 2, 0, 0, 0, 0]", fillcolor="#39e54d"] ;
267 -> 268 ;
269 [label="gini = 0.0\nsamples = 1\nvalue = [0, 0, 0, 1, 0, 0, 0]", fillcolor="#39e5e2"] ;
267 -> 269 ;
270 [label="gini = 0.0\nsamples = 5\nvalue = [0, 5, 0, 0, 0, 0, 0]", fillcolor="#b7e539"] ;
266 -> 270 ;
271 [label="pH <= 3.045\ngini = 0.592\nsamples = 99\nvalue = [0, 8, 49, 39, 3, 0, 0]", fillcolor="#defbe1"] ;
255 -> 271 ;
272 [label="free sulfur dioxide <= 8.5\ngini = 0.219\nsamples = 16\nvalue = [0, 2, 14, 0, 0, 0, 0]", fillcolor="#55e966"] ;
271 -> 272 ;
273 [label="citric acid <= 0.365\ngini = 0.444\nsamples = 3\nvalue = [0, 2, 1, 0, 0, 0, 0]", fillcolor="#dbf29c"] ;
272 -> 273 ;
274 [label="gini = 0.0\nsamples = 2\nvalue = [0, 2, 0, 0, 0, 0, 0]", fillcolor="#b7e539"] ;
273 -> 274 ;
275 [label="gini = 0.0\nsamples = 1\nvalue = [0, 0, 1, 0, 0, 0, 0]", fillcolor="#39e54d"] ;
273 -> 275 ;
276 [label="gini = 0.0\nsamples = 13\nvalue = [0, 0, 13, 0, 0, 0, 0]", fillcolor="#39e54d"] ;
272 -> 276 ;
277 [label="chlorides <= 0.041\ngini = 0.595\nsamples = 83\nvalue = [0, 6, 35, 39, 3, 0, 0]", fillcolor="#effdfd"] ;
271 -> 277 ;
278 [label="volatile acidity <= 0.275\ngini = 0.453\nsamples = 30\nvalue = [0, 1, 7, 21, 1, 0, 0]", fillcolor="#86efed"] ;
277 -> 278 ;
279 [label="free sulfur dioxide <= 9.0\ngini = 0.165\nsamples = 11\nvalue = [0, 1, 0, 10, 0, 0, 0]", fillcolor="#4de8e5"] ;
278 -> 279 ;
280 [label="gini = 0.0\nsamples = 1\nvalue = [0, 1, 0, 0, 0, 0, 0]", fillcolor="#b7e539"] ;
279 -> 280 ;
281 [label="gini = 0.0\nsamples = 10\nvalue = [0, 0, 0, 10, 0, 0, 0]", fillcolor="#39e5e2"] ;
279 -> 281 ;
282 [label="sulphates <= 0.405\ngini = 0.526\nsamples = 19\nvalue = [0, 0, 7, 11, 1, 0, 0]", fillcolor="#bdf6f5"] ;
278 -> 282 ;
283 [label="gini = 0.0\nsamples = 5\nvalue = [0, 0, 0, 5, 0, 0, 0]", fillcolor="#39e5e2"] ;
282 -> 283 ;
284 [label="gini = 0.561\nsamples = 14\nvalue = [0, 0, 7, 6, 1, 0, 0]", fillcolor="#e6fce9"] ;
282 -> 284 ;
285 [label="pH <= 3.255\ngini = 0.595\nsamples = 53\nvalue = [0, 5, 28, 18, 2, 0, 0]", fillcolor="#c6f8cc"] ;
277 -> 285 ;
286 [label="pH <= 3.125\ngini = 0.45\nsamples = 31\nvalue = [0, 3, 22, 6, 0, 0, 0]", fillcolor="#80ee8d"] ;
285 -> 286 ;
287 [label="gini = 0.375\nsamples = 4\nvalue = [0, 1, 0, 3, 0, 0, 0]", fillcolor="#7beeec"] ;
286 -> 287 ;
288 [label="gini = 0.318\nsamples = 27\nvalue = [0, 2, 22, 3, 0, 0, 0]", fillcolor="#62ea72"] ;
286 -> 288 ;
289 [label="density <= 0.994\ngini = 0.612\nsamples = 22\nvalue = [0, 2, 6, 12, 2, 0, 0]", fillcolor="#b5f5f4"] ;
285 -> 289 ;
290 [label="gini = 0.32\nsamples = 10\nvalue = [0, 0, 0, 8, 2, 0, 0]", fillcolor="#6aece9"] ;
289 -> 290 ;
291 [label="gini = 0.611\nsamples = 12\nvalue = [0, 2, 6, 4, 0, 0, 0]", fillcolor="#cef8d2"] ;
289 -> 291 ;
292 [label="volatile acidity <= 0.415\ngini = 0.198\nsamples = 9\nvalue = [0, 1, 0, 8, 0, 0, 0]", fillcolor="#52e8e6"] ;
254 -> 292 ;
293 [label="gini = 0.0\nsamples = 8\nvalue = [0, 0, 0, 8, 0, 0, 0]", fillcolor="#39e5e2"] ;
292 -> 293 ;
294 [label="gini = 0.0\nsamples = 1\nvalue = [0, 1, 0, 0, 0, 0, 0]", fillcolor="#b7e539"] ;
292 -> 294 ;
295 [label="total sulfur dioxide <= 140.5\ngini = 0.607\nsamples = 372\nvalue = [2, 13, 115, 199, 37, 5, 1]", fillcolor="#bef7f6"] ;
253 -> 295 ;
296 [label="pH <= 3.395\ngini = 0.502\nsamples = 148\nvalue = [0, 2, 25, 100, 16, 4, 1]", fillcolor="#86efed"] ;
295 -> 296 ;
297 [label="density <= 0.991\ngini = 0.447\nsamples = 128\nvalue = [0, 2, 23, 92, 8, 2, 1]", fillcolor="#7deeec"] ;
296 -> 297 ;
298 [label="gini = 0.0\nsamples = 2\nvalue = [0, 0, 0, 0, 2, 0, 0]", fillcolor="#3956e5"] ;
297 -> 298 ;
299 [label="total sulfur dioxide <= 110.5\ngini = 0.431\nsamples = 126\nvalue = [0, 2, 23, 92, 6, 2, 1]", fillcolor="#7aeeec"] ;
297 -> 299 ;
300 [label="free sulfur dioxide <= 37.5\ngini = 0.174\nsamples = 32\nvalue = [0, 0, 2, 29, 0, 1, 0]", fillcolor="#4de8e5"] ;
299 -> 300 ;
301 [label="total sulfur dioxide <= 78.0\ngini = 0.121\nsamples = 31\nvalue = [0, 0, 2, 29, 0, 0, 0]", fillcolor="#47e7e4"] ;
300 -> 301 ;
302 [label="gini = 0.0\nsamples = 1\nvalue = [0, 0, 1, 0, 0, 0, 0]", fillcolor="#39e54d"] ;
301 -> 302 ;
303 [label="gini = 0.064\nsamples = 30\nvalue = [0, 0, 1, 29, 0, 0, 0]", fillcolor="#40e6e3"] ;
301 -> 303 ;
304 [label="gini = 0.0\nsamples = 1\nvalue = [0, 0, 0, 0, 0, 1, 0]", fillcolor="#b139e5"] ;
300 -> 304 ;
305 [label="fixed acidity <= 7.15\ngini = 0.496\nsamples = 94\nvalue = [0, 2, 21, 63, 6, 1, 1]", fillcolor="#8df0ee"] ;
299 -> 305 ;
306 [label="citric acid <= 0.245\ngini = 0.415\nsamples = 71\nvalue = [0, 2, 11, 53, 4, 1, 0]", fillcolor="#74edeb"] ;
305 -> 306 ;
307 [label="gini = 0.583\nsamples = 26\nvalue = [0, 2, 7, 15, 2, 0, 0]", fillcolor="#acf4f3"] ;
306 -> 307 ;
308 [label="gini = 0.277\nsamples = 45\nvalue = [0, 0, 4, 38, 2, 1, 0]", fillcolor="#5be9e7"] ;
306 -> 308 ;
309 [label="total sulfur dioxide <= 129.0\ngini = 0.612\nsamples = 23\nvalue = [0, 0, 10, 10, 2, 0, 1]", fillcolor="#ffffff"] ;
305 -> 309 ;
310 [label="gini = 0.599\nsamples = 18\nvalue = [0, 0, 5, 10, 2, 0, 1]", fillcolor="#b3f5f4"] ;
309 -> 310 ;
311 [label="gini = 0.0\nsamples = 5\nvalue = [0, 0, 5, 0, 0, 0, 0]", fillcolor="#39e54d"] ;
309 -> 311 ;
312 [label="free sulfur dioxide <= 30.0\ngini = 0.66\nsamples = 20\nvalue = [0, 0, 2, 8, 8, 2, 0]", fillcolor="#ffffff"] ;
296 -> 312 ;
313 [label="density <= 0.995\ngini = 0.346\nsamples = 9\nvalue = [0, 0, 0, 7, 2, 0, 0]", fillcolor="#72ecea"] ;
312 -> 313 ;
314 [label="gini = 0.0\nsamples = 6\nvalue = [0, 0, 0, 6, 0, 0, 0]", fillcolor="#39e5e2"] ;
313 -> 314 ;
315 [label="volatile acidity <= 0.255\ngini = 0.444\nsamples = 3\nvalue = [0, 0, 0, 1, 2, 0, 0]", fillcolor="#9caaf2"] ;
313 -> 315 ;
316 [label="gini = 0.0\nsamples = 1\nvalue = [0, 0, 0, 1, 0, 0, 0]", fillcolor="#39e5e2"] ;
315 -> 316 ;
317 [label="gini = 0.0\nsamples = 2\nvalue = [0, 0, 0, 0, 2, 0, 0]", fillcolor="#3956e5"] ;
315 -> 317 ;
318 [label="density <= 0.994\ngini = 0.628\nsamples = 11\nvalue = [0, 0, 2, 1, 6, 2, 0]", fillcolor="#a7b4f3"] ;
312 -> 318 ;
319 [label="density <= 0.993\ngini = 0.375\nsamples = 8\nvalue = [0, 0, 0, 0, 6, 2, 0]", fillcolor="#7b8eee"] ;
318 -> 319 ;
320 [label="gini = 0.0\nsamples = 1\nvalue = [0, 0, 0, 0, 0, 1, 0]", fillcolor="#b139e5"] ;
319 -> 320 ;
321 [label="sulphates <= 0.485\ngini = 0.245\nsamples = 7\nvalue = [0, 0, 0, 0, 6, 1, 0]", fillcolor="#5a72e9"] ;
319 -> 321 ;
322 [label="gini = 0.0\nsamples = 1\nvalue = [0, 0, 0, 0, 0, 1, 0]", fillcolor="#b139e5"] ;
321 -> 322 ;
323 [label="gini = 0.0\nsamples = 6\nvalue = [0, 0, 0, 0, 6, 0, 0]", fillcolor="#3956e5"] ;
321 -> 323 ;
324 [label="sulphates <= 0.67\ngini = 0.444\nsamples = 3\nvalue = [0, 0, 2, 1, 0, 0, 0]", fillcolor="#9cf2a6"] ;
318 -> 324 ;
325 [label="gini = 0.0\nsamples = 2\nvalue = [0, 0, 2, 0, 0, 0, 0]", fillcolor="#39e54d"] ;
324 -> 325 ;
326 [label="gini = 0.0\nsamples = 1\nvalue = [0, 0, 0, 1, 0, 0, 0]", fillcolor="#39e5e2"] ;
324 -> 326 ;
327 [label="volatile acidity <= 0.262\ngini = 0.632\nsamples = 224\nvalue = [2, 11, 90, 99, 21, 1, 0]", fillcolor="#f2fdfd"] ;
295 -> 327 ;
328 [label="pH <= 3.43\ngini = 0.559\nsamples = 58\nvalue = [2, 1, 9, 36, 10, 0, 0]", fillcolor="#94f1ef"] ;
327 -> 328 ;
329 [label="chlorides <= 0.055\ngini = 0.448\nsamples = 47\nvalue = [1, 1, 6, 34, 5, 0, 0]", fillcolor="#78edeb"] ;
328 -> 329 ;
330 [label="density <= 0.992\ngini = 0.357\nsamples = 42\nvalue = [0, 0, 6, 33, 3, 0, 0]", fillcolor="#6bece9"] ;
329 -> 330 ;
331 [label="gini = 0.0\nsamples = 1\nvalue = [0, 0, 1, 0, 0, 0, 0]", fillcolor="#39e54d"] ;
330 -> 331 ;
332 [label="chlorides <= 0.047\ngini = 0.332\nsamples = 41\nvalue = [0, 0, 5, 33, 3, 0, 0]", fillcolor="#65ebe8"] ;
330 -> 332 ;
333 [label="gini = 0.191\nsamples = 28\nvalue = [0, 0, 3, 25, 0, 0, 0]", fillcolor="#51e8e5"] ;
332 -> 333 ;
334 [label="gini = 0.544\nsamples = 13\nvalue = [0, 0, 2, 8, 3, 0, 0]", fillcolor="#9cf2f0"] ;
332 -> 334 ;
335 [label="density <= 0.996\ngini = 0.72\nsamples = 5\nvalue = [1, 1, 0, 1, 2, 0, 0]", fillcolor="#ced5f8"] ;
329 -> 335 ;
336 [label="gini = 0.0\nsamples = 2\nvalue = [0, 0, 0, 0, 2, 0, 0]", fillcolor="#3956e5"] ;
335 -> 336 ;
337 [label="chlorides <= 0.058\ngini = 0.667\nsamples = 3\nvalue = [1, 1, 0, 1, 0, 0, 0]", fillcolor="#ffffff"] ;
335 -> 337 ;
338 [label="gini = 0.0\nsamples = 1\nvalue = [0, 1, 0, 0, 0, 0, 0]", fillcolor="#b7e539"] ;
337 -> 338 ;
339 [label="gini = 0.5\nsamples = 2\nvalue = [1, 0, 0, 1, 0, 0, 0]", fillcolor="#ffffff"] ;
337 -> 339 ;
340 [label="sulphates <= 0.465\ngini = 0.678\nsamples = 11\nvalue = [1, 0, 3, 2, 5, 0, 0]", fillcolor="#ced5f8"] ;
328 -> 340 ;
341 [label="gini = 0.0\nsamples = 2\nvalue = [0, 0, 0, 2, 0, 0, 0]", fillcolor="#39e5e2"] ;
340 -> 341 ;
342 [label="density <= 0.998\ngini = 0.568\nsamples = 9\nvalue = [1, 0, 3, 0, 5, 0, 0]", fillcolor="#bdc7f6"] ;
340 -> 342 ;
343 [label="sulphates <= 0.61\ngini = 0.449\nsamples = 7\nvalue = [1, 0, 1, 0, 5, 0, 0]", fillcolor="#7b8eee"] ;
342 -> 343 ;
344 [label="gini = 0.278\nsamples = 6\nvalue = [0, 0, 1, 0, 5, 0, 0]", fillcolor="#6178ea"] ;
343 -> 344 ;
345 [label="gini = 0.0\nsamples = 1\nvalue = [1, 0, 0, 0, 0, 0, 0]", fillcolor="#e58139"] ;
343 -> 345 ;
346 [label="gini = 0.0\nsamples = 2\nvalue = [0, 0, 2, 0, 0, 0, 0]", fillcolor="#39e54d"] ;
342 -> 346 ;
347 [label="residual sugar <= 1.55\ngini = 0.61\nsamples = 166\nvalue = [0, 10, 81, 63, 11, 1, 0]", fillcolor="#dcfae0"] ;
327 -> 347 ;
348 [label="density <= 0.994\ngini = 0.468\nsamples = 33\nvalue = [0, 5, 23, 5, 0, 0, 0]", fillcolor="#80ee8d"] ;
347 -> 348 ;
349 [label="total sulfur dioxide <= 197.5\ngini = 0.38\nsamples = 30\nvalue = [0, 2, 23, 5, 0, 0, 0]", fillcolor="#70ec7f"] ;
348 -> 349 ;
350 [label="free sulfur dioxide <= 39.5\ngini = 0.304\nsamples = 28\nvalue = [0, 1, 23, 4, 0, 0, 0]", fillcolor="#62ea72"] ;
349 -> 350 ;
351 [label="gini = 0.5\nsamples = 14\nvalue = [0, 1, 9, 4, 0, 0, 0]", fillcolor="#9cf2a6"] ;
350 -> 351 ;
352 [label="gini = 0.0\nsamples = 14\nvalue = [0, 0, 14, 0, 0, 0, 0]", fillcolor="#39e54d"] ;
350 -> 352 ;
353 [label="residual sugar <= 1.3\ngini = 0.5\nsamples = 2\nvalue = [0, 1, 0, 1, 0, 0, 0]", fillcolor="#ffffff"] ;
349 -> 353 ;
354 [label="gini = 0.0\nsamples = 1\nvalue = [0, 0, 0, 1, 0, 0, 0]", fillcolor="#39e5e2"] ;
353 -> 354 ;
355 [label="gini = 0.0\nsamples = 1\nvalue = [0, 1, 0, 0, 0, 0, 0]", fillcolor="#b7e539"] ;
353 -> 355 ;
356 [label="gini = 0.0\nsamples = 3\nvalue = [0, 3, 0, 0, 0, 0, 0]", fillcolor="#b7e539"] ;
348 -> 356 ;
357 [label="free sulfur dioxide <= 55.5\ngini = 0.611\nsamples = 133\nvalue = [0, 5, 58, 58, 11, 1, 0]", fillcolor="#ffffff"] ;
347 -> 357 ;
358 [label="total sulfur dioxide <= 221.25\ngini = 0.62\nsamples = 117\nvalue = [0, 5, 55, 45, 11, 1, 0]", fillcolor="#e4fbe6"] ;
357 -> 358 ;
359 [label="total sulfur dioxide <= 158.5\ngini = 0.619\nsamples = 107\nvalue = [0, 5, 54, 36, 11, 1, 0]", fillcolor="#cdf8d2"] ;
358 -> 359 ;
360 [label="gini = 0.635\nsamples = 43\nvalue = [0, 0, 13, 21, 8, 1, 0]", fillcolor="#caf8f7"] ;
359 -> 360 ;
361 [label="gini = 0.526\nsamples = 64\nvalue = [0, 5, 41, 15, 3, 0, 0]", fillcolor="#96f1a1"] ;
359 -> 361 ;
362 [label="alcohol <= 9.95\ngini = 0.18\nsamples = 10\nvalue = [0, 0, 1, 9, 0, 0, 0]", fillcolor="#4fe8e5"] ;
358 -> 362 ;
363 [label="gini = 0.0\nsamples = 1\nvalue = [0, 0, 1, 0, 0, 0, 0]", fillcolor="#39e54d"] ;
362 -> 363 ;
364 [label="gini = 0.0\nsamples = 9\nvalue = [0, 0, 0, 9, 0, 0, 0]", fillcolor="#39e5e2"] ;
362 -> 364 ;
365 [label="citric acid <= 0.345\ngini = 0.305\nsamples = 16\nvalue = [0, 0, 3, 13, 0, 0, 0]", fillcolor="#67ebe9"] ;
357 -> 365 ;
366 [label="density <= 0.997\ngini = 0.133\nsamples = 14\nvalue = [0, 0, 1, 13, 0, 0, 0]", fillcolor="#48e7e4"] ;
365 -> 366 ;
367 [label="gini = 0.0\nsamples = 13\nvalue = [0, 0, 0, 13, 0, 0, 0]", fillcolor="#39e5e2"] ;
366 -> 367 ;
368 [label="gini = 0.0\nsamples = 1\nvalue = [0, 0, 1, 0, 0, 0, 0]", fillcolor="#39e54d"] ;
366 -> 368 ;
369 [label="gini = 0.0\nsamples = 2\nvalue = [0, 0, 2, 0, 0, 0, 0]", fillcolor="#39e54d"] ;
365 -> 369 ;
370 [label="alcohol <= 12.55\ngini = 0.656\nsamples = 1361\nvalue = [7, 26, 130, 631, 458, 106, 3]", fillcolor="#d9faf9"] ;
0 -> 370 [labeldistance=2.5, labelangle=-45, headlabel="False"] ;
371 [label="free sulfur dioxide <= 11.5\ngini = 0.647\nsamples = 1111\nvalue = [6, 24, 121, 552, 333, 73, 2]", fillcolor="#c7f8f7"] ;
370 -> 371 ;
372 [label="citric acid <= 0.2\ngini = 0.719\nsamples = 72\nvalue = [1, 16, 21, 27, 5, 2, 0]", fillcolor="#e8fcfc"] ;
371 -> 372 ;
373 [label="gini = 0.0\nsamples = 6\nvalue = [0, 6, 0, 0, 0, 0, 0]", fillcolor="#b7e539"] ;
372 -> 373 ;
374 [label="density <= 0.99\ngini = 0.702\nsamples = 66\nvalue = [1, 10, 21, 27, 5, 2, 0]", fillcolor="#e5fcfb"] ;
372 -> 374 ;
375 [label="gini = 0.0\nsamples = 5\nvalue = [0, 0, 0, 5, 0, 0, 0]", fillcolor="#39e5e2"] ;
374 -> 375 ;
376 [label="density <= 0.991\ngini = 0.716\nsamples = 61\nvalue = [1, 10, 21, 22, 5, 2, 0]", fillcolor="#fafefe"] ;
374 -> 376 ;
377 [label="pH <= 3.335\ngini = 0.408\nsamples = 7\nvalue = [0, 5, 2, 0, 0, 0, 0]", fillcolor="#d4ef88"] ;
376 -> 377 ;
378 [label="gini = 0.0\nsamples = 5\nvalue = [0, 5, 0, 0, 0, 0, 0]", fillcolor="#b7e539"] ;
377 -> 378 ;
379 [label="gini = 0.0\nsamples = 2\nvalue = [0, 0, 2, 0, 0, 0, 0]", fillcolor="#39e54d"] ;
377 -> 379 ;
380 [label="total sulfur dioxide <= 86.5\ngini = 0.691\nsamples = 54\nvalue = [1, 5, 19, 22, 5, 2, 0]", fillcolor="#eefdfd"] ;
376 -> 380 ;
381 [label="density <= 0.994\ngini = 0.628\nsamples = 24\nvalue = [0, 1, 13, 6, 2, 2, 0]", fillcolor="#b2f5ba"] ;
380 -> 381 ;
382 [label="total sulfur dioxide <= 37.0\ngini = 0.545\nsamples = 20\nvalue = [0, 1, 13, 2, 2, 2, 0]", fillcolor="#86ef92"] ;
381 -> 382 ;
383 [label="fixed acidity <= 7.7\ngini = 0.5\nsamples = 2\nvalue = [0, 1, 0, 1, 0, 0, 0]", fillcolor="#ffffff"] ;
382 -> 383 ;
384 [label="gini = 0.0\nsamples = 1\nvalue = [0, 1, 0, 0, 0, 0, 0]", fillcolor="#b7e539"] ;
383 -> 384 ;
385 [label="gini = 0.0\nsamples = 1\nvalue = [0, 0, 0, 1, 0, 0, 0]", fillcolor="#39e5e2"] ;
383 -> 385 ;
386 [label="sulphates <= 0.465\ngini = 0.451\nsamples = 18\nvalue = [0, 0, 13, 1, 2, 2, 0]", fillcolor="#77ed85"] ;
382 -> 386 ;
387 [label="gini = 0.165\nsamples = 11\nvalue = [0, 0, 10, 1, 0, 0, 0]", fillcolor="#4de85f"] ;
386 -> 387 ;
388 [label="gini = 0.653\nsamples = 7\nvalue = [0, 0, 3, 0, 2, 2, 0]", fillcolor="#d7fadb"] ;
386 -> 388 ;
389 [label="gini = 0.0\nsamples = 4\nvalue = [0, 0, 0, 4, 0, 0, 0]", fillcolor="#39e5e2"] ;
381 -> 389 ;
390 [label="density <= 0.992\ngini = 0.647\nsamples = 30\nvalue = [1, 4, 6, 16, 3, 0, 0]", fillcolor="#acf4f3"] ;
380 -> 390 ;
391 [label="free sulfur dioxide <= 8.5\ngini = 0.414\nsamples = 16\nvalue = [1, 2, 1, 12, 0, 0, 0]", fillcolor="#72ecea"] ;
390 -> 391 ;
392 [label="volatile acidity <= 0.27\ngini = 0.694\nsamples = 7\nvalue = [1, 2, 1, 3, 0, 0, 0]", fillcolor="#d7faf9"] ;
391 -> 392 ;
393 [label="gini = 0.625\nsamples = 4\nvalue = [1, 2, 1, 0, 0, 0, 0]", fillcolor="#e7f6bd"] ;
392 -> 393 ;
394 [label="gini = 0.0\nsamples = 3\nvalue = [0, 0, 0, 3, 0, 0, 0]", fillcolor="#39e5e2"] ;
392 -> 394 ;
395 [label="gini = 0.0\nsamples = 9\nvalue = [0, 0, 0, 9, 0, 0, 0]", fillcolor="#39e5e2"] ;
391 -> 395 ;
396 [label="sulphates <= 0.445\ngini = 0.724\nsamples = 14\nvalue = [0, 2, 5, 4, 3, 0, 0]", fillcolor="#ebfced"] ;
390 -> 396 ;
397 [label="gini = 0.0\nsamples = 3\nvalue = [0, 0, 0, 0, 3, 0, 0]", fillcolor="#3956e5"] ;
396 -> 397 ;
398 [label="residual sugar <= 1.75\ngini = 0.628\nsamples = 11\nvalue = [0, 2, 5, 4, 0, 0, 0]", fillcolor="#e3fbe6"] ;
396 -> 398 ;
399 [label="gini = 0.375\nsamples = 4\nvalue = [0, 1, 0, 3, 0, 0, 0]", fillcolor="#7beeec"] ;
398 -> 399 ;
400 [label="gini = 0.449\nsamples = 7\nvalue = [0, 1, 5, 1, 0, 0, 0]", fillcolor="#7bee88"] ;
398 -> 400 ;
401 [label="chlorides <= 0.039\ngini = 0.631\nsamples = 1039\nvalue = [5, 8, 100, 525, 328, 71, 2]", fillcolor="#c8f8f7"] ;
371 -> 401 ;
402 [label="fixed acidity <= 8.15\ngini = 0.63\nsamples = 668\nvalue = [2, 5, 49, 323, 236, 51, 2]", fillcolor="#d7faf9"] ;
401 -> 402 ;
403 [label="pH <= 3.245\ngini = 0.616\nsamples = 625\nvalue = [1, 4, 34, 308, 227, 49, 2]", fillcolor="#d7faf9"] ;
402 -> 403 ;
404 [label="residual sugar <= 2.25\ngini = 0.595\nsamples = 368\nvalue = [1, 4, 26, 200, 117, 20, 0]", fillcolor="#bef6f5"] ;
403 -> 404 ;
405 [label="density <= 0.992\ngini = 0.519\nsamples = 139\nvalue = [0, 1, 13, 90, 32, 3, 0]", fillcolor="#94f1ef"] ;
404 -> 405 ;
406 [label="total sulfur dioxide <= 97.5\ngini = 0.474\nsamples = 119\nvalue = [0, 1, 4, 80, 32, 2, 0]", fillcolor="#92f1ef"] ;
405 -> 406 ;
407 [label="alcohol <= 11.35\ngini = 0.34\nsamples = 46\nvalue = [0, 1, 3, 37, 4, 1, 0]", fillcolor="#63ebe8"] ;
406 -> 407 ;
408 [label="gini = 0.602\nsamples = 17\nvalue = [0, 1, 3, 10, 2, 1, 0]", fillcolor="#9cf2f0"] ;
407 -> 408 ;
409 [label="gini = 0.128\nsamples = 29\nvalue = [0, 0, 0, 27, 2, 0, 0]", fillcolor="#48e7e4"] ;
407 -> 409 ;
410 [label="fixed acidity <= 6.95\ngini = 0.506\nsamples = 73\nvalue = [0, 0, 1, 43, 28, 1, 0]", fillcolor="#bdf6f5"] ;
406 -> 410 ;
411 [label="gini = 0.447\nsamples = 52\nvalue = [0, 0, 1, 36, 14, 1, 0]", fillcolor="#8cf0ee"] ;
410 -> 411 ;
412 [label="gini = 0.444\nsamples = 21\nvalue = [0, 0, 0, 7, 14, 0, 0]", fillcolor="#9caaf2"] ;
410 -> 412 ;
413 [label="free sulfur dioxide <= 23.5\ngini = 0.545\nsamples = 20\nvalue = [0, 0, 9, 10, 0, 1, 0]", fillcolor="#edfdfc"] ;
405 -> 413 ;
414 [label="chlorides <= 0.029\ngini = 0.444\nsamples = 12\nvalue = [0, 0, 8, 4, 0, 0, 0]", fillcolor="#9cf2a6"] ;
413 -> 414 ;
415 [label="gini = 0.0\nsamples = 2\nvalue = [0, 0, 0, 2, 0, 0, 0]", fillcolor="#39e5e2"] ;
414 -> 415 ;
416 [label="gini = 0.32\nsamples = 10\nvalue = [0, 0, 8, 2, 0, 0, 0]", fillcolor="#6aec79"] ;
414 -> 416 ;
417 [label="volatile acidity <= 0.365\ngini = 0.406\nsamples = 8\nvalue = [0, 0, 1, 6, 0, 1, 0]", fillcolor="#72ecea"] ;
413 -> 417 ;
418 [label="gini = 0.245\nsamples = 7\nvalue = [0, 0, 0, 6, 0, 1, 0]", fillcolor="#5ae9e7"] ;
417 -> 418 ;
419 [label="gini = 0.0\nsamples = 1\nvalue = [0, 0, 1, 0, 0, 0, 0]", fillcolor="#39e54d"] ;
417 -> 419 ;
420 [label="alcohol <= 12.25\ngini = 0.623\nsamples = 229\nvalue = [1, 3, 13, 110, 85, 17, 0]", fillcolor="#ddfafa"] ;
404 -> 420 ;
421 [label="alcohol <= 11.85\ngini = 0.605\nsamples = 176\nvalue = [1, 3, 13, 82, 73, 4, 0]", fillcolor="#eefdfc"] ;
420 -> 421 ;
422 [label="volatile acidity <= 0.265\ngini = 0.587\nsamples = 124\nvalue = [1, 3, 9, 67, 42, 2, 0]", fillcolor="#c3f7f6"] ;
421 -> 422 ;
423 [label="gini = 0.573\nsamples = 77\nvalue = [0, 2, 2, 36, 35, 2, 0]", fillcolor="#fafefe"] ;
422 -> 423 ;
424 [label="gini = 0.52\nsamples = 47\nvalue = [1, 1, 7, 31, 7, 0, 0]", fillcolor="#88efee"] ;
422 -> 424 ;
425 [label="pH <= 3.225\ngini = 0.554\nsamples = 52\nvalue = [0, 0, 4, 15, 31, 2, 0]", fillcolor="#a9b6f4"] ;
421 -> 425 ;
426 [label="gini = 0.531\nsamples = 49\nvalue = [0, 0, 4, 12, 31, 2, 0]", fillcolor="#99a8f2"] ;
425 -> 426 ;
427 [label="gini = 0.0\nsamples = 3\nvalue = [0, 0, 0, 3, 0, 0, 0]", fillcolor="#39e5e2"] ;
425 -> 427 ;
428 [label="free sulfur dioxide <= 51.5\ngini = 0.609\nsamples = 53\nvalue = [0, 0, 0, 28, 12, 13, 0]", fillcolor="#b5f5f4"] ;
420 -> 428 ;
429 [label="residual sugar <= 5.85\ngini = 0.589\nsamples = 50\nvalue = [0, 0, 0, 28, 12, 10, 0]", fillcolor="#acf4f3"] ;
428 -> 429 ;
430 [label="gini = 0.573\nsamples = 24\nvalue = [0, 0, 0, 11, 11, 2, 0]", fillcolor="#ffffff"] ;
429 -> 430 ;
431 [label="gini = 0.476\nsamples = 26\nvalue = [0, 0, 0, 17, 1, 8, 0]", fillcolor="#9cf2f0"] ;
429 -> 431 ;
432 [label="gini = 0.0\nsamples = 3\nvalue = [0, 0, 0, 0, 0, 3, 0]", fillcolor="#b139e5"] ;
428 -> 432 ;
433 [label="residual sugar <= 6.75\ngini = 0.626\nsamples = 257\nvalue = [0, 0, 8, 108, 110, 29, 2]", fillcolor="#fcfdff"] ;
403 -> 433 ;
434 [label="residual sugar <= 2.15\ngini = 0.621\nsamples = 220\nvalue = [0, 0, 8, 82, 105, 23, 2]", fillcolor="#dee3fb"] ;
433 -> 434 ;
435 [label="volatile acidity <= 0.157\ngini = 0.643\nsamples = 127\nvalue = [0, 0, 7, 59, 45, 14, 2]", fillcolor="#ddfbfa"] ;
434 -> 435 ;
436 [label="citric acid <= 0.345\ngini = 0.542\nsamples = 12\nvalue = [0, 0, 0, 1, 7, 4, 0]", fillcolor="#b5c0f5"] ;
435 -> 436 ;
437 [label="gini = 0.219\nsamples = 8\nvalue = [0, 0, 0, 0, 7, 1, 0]", fillcolor="#556ee9"] ;
436 -> 437 ;
438 [label="gini = 0.375\nsamples = 4\nvalue = [0, 0, 0, 1, 0, 3, 0]", fillcolor="#cb7bee"] ;
436 -> 438 ;
439 [label="pH <= 3.505\ngini = 0.625\nsamples = 115\nvalue = [0, 0, 7, 58, 38, 10, 2]", fillcolor="#ccf8f7"] ;
435 -> 439 ;
440 [label="gini = 0.615\nsamples = 110\nvalue = [0, 0, 7, 58, 34, 9, 2]", fillcolor="#c0f7f6"] ;
439 -> 440 ;
441 [label="gini = 0.32\nsamples = 5\nvalue = [0, 0, 0, 0, 4, 1, 0]", fillcolor="#6a80ec"] ;
439 -> 441 ;
442 [label="volatile acidity <= 0.195\ngini = 0.513\nsamples = 93\nvalue = [0, 0, 1, 23, 60, 9, 0]", fillcolor="#96a6f1"] ;
434 -> 442 ;
443 [label="residual sugar <= 2.8\ngini = 0.494\nsamples = 9\nvalue = [0, 0, 0, 6, 2, 1, 0]", fillcolor="#8ef0ee"] ;
442 -> 443 ;
444 [label="gini = 0.444\nsamples = 3\nvalue = [0, 0, 0, 0, 2, 1, 0]", fillcolor="#9caaf2"] ;
443 -> 444 ;
445 [label="gini = 0.0\nsamples = 6\nvalue = [0, 0, 0, 6, 0, 0, 0]", fillcolor="#39e5e2"] ;
443 -> 445 ;
446 [label="fixed acidity <= 5.35\ngini = 0.473\nsamples = 84\nvalue = [0, 0, 1, 17, 58, 8, 0]", fillcolor="#8698ef"] ;
442 -> 446 ;
447 [label="gini = 0.66\nsamples = 10\nvalue = [0, 0, 0, 4, 3, 3, 0]", fillcolor="#e3fbfb"] ;
446 -> 447 ;
448 [label="gini = 0.412\nsamples = 74\nvalue = [0, 0, 1, 13, 55, 5, 0]", fillcolor="#778bed"] ;
446 -> 448 ;
449 [label="volatile acidity <= 0.255\ngini = 0.462\nsamples = 37\nvalue = [0, 0, 0, 26, 5, 6, 0]", fillcolor="#7feeec"] ;
433 -> 449 ;
450 [label="alcohol <= 11.55\ngini = 0.661\nsamples = 11\nvalue = [0, 0, 0, 3, 4, 4, 0]", fillcolor="#ffffff"] ;
449 -> 450 ;
451 [label="fixed acidity <= 6.05\ngini = 0.5\nsamples = 6\nvalue = [0, 0, 0, 3, 0, 3, 0]", fillcolor="#ffffff"] ;
450 -> 451 ;
452 [label="gini = 0.375\nsamples = 4\nvalue = [0, 0, 0, 3, 0, 1, 0]", fillcolor="#7beeec"] ;
451 -> 452 ;
453 [label="gini = 0.0\nsamples = 2\nvalue = [0, 0, 0, 0, 0, 2, 0]", fillcolor="#b139e5"] ;
451 -> 453 ;
454 [label="total sulfur dioxide <= 108.0\ngini = 0.32\nsamples = 5\nvalue = [0, 0, 0, 0, 4, 1, 0]", fillcolor="#6a80ec"] ;
450 -> 454 ;
455 [label="gini = 0.0\nsamples = 1\nvalue = [0, 0, 0, 0, 0, 1, 0]", fillcolor="#b139e5"] ;
454 -> 455 ;
456 [label="gini = 0.0\nsamples = 4\nvalue = [0, 0, 0, 0, 4, 0, 0]", fillcolor="#3956e5"] ;
454 -> 456 ;
457 [label="free sulfur dioxide <= 61.5\ngini = 0.21\nsamples = 26\nvalue = [0, 0, 0, 23, 1, 2, 0]", fillcolor="#52e8e6"] ;
449 -> 457 ;
458 [label="sulphates <= 0.36\ngini = 0.15\nsamples = 25\nvalue = [0, 0, 0, 23, 1, 1, 0]", fillcolor="#49e7e4"] ;
457 -> 458 ;
459 [label="gini = 0.5\nsamples = 2\nvalue = [0, 0, 0, 1, 1, 0, 0]", fillcolor="#ffffff"] ;
458 -> 459 ;
460 [label="gini = 0.083\nsamples = 23\nvalue = [0, 0, 0, 22, 0, 1, 0]", fillcolor="#42e6e3"] ;
458 -> 460 ;
461 [label="gini = 0.0\nsamples = 1\nvalue = [0, 0, 0, 0, 0, 1, 0]", fillcolor="#b139e5"] ;
457 -> 461 ;
462 [label="volatile acidity <= 0.305\ngini = 0.71\nsamples = 43\nvalue = [1, 1, 15, 15, 9, 2, 0]", fillcolor="#ffffff"] ;
402 -> 462 ;
463 [label="alcohol <= 11.75\ngini = 0.659\nsamples = 33\nvalue = [1, 0, 8, 15, 9, 0, 0]", fillcolor="#cef8f8"] ;
462 -> 463 ;
464 [label="chlorides <= 0.033\ngini = 0.688\nsamples = 23\nvalue = [1, 0, 8, 6, 8, 0, 0]", fillcolor="#ffffff"] ;
463 -> 464 ;
465 [label="chlorides <= 0.027\ngini = 0.486\nsamples = 12\nvalue = [0, 0, 7, 0, 5, 0, 0]", fillcolor="#c6f8cc"] ;
464 -> 465 ;
466 [label="alcohol <= 11.35\ngini = 0.32\nsamples = 5\nvalue = [0, 0, 1, 0, 4, 0, 0]", fillcolor="#6a80ec"] ;
465 -> 466 ;
467 [label="gini = 0.0\nsamples = 4\nvalue = [0, 0, 0, 0, 4, 0, 0]", fillcolor="#3956e5"] ;
466 -> 467 ;
468 [label="gini = 0.0\nsamples = 1\nvalue = [0, 0, 1, 0, 0, 0, 0]", fillcolor="#39e54d"] ;
466 -> 468 ;
469 [label="volatile acidity <= 0.29\ngini = 0.245\nsamples = 7\nvalue = [0, 0, 6, 0, 1, 0, 0]", fillcolor="#5ae96b"] ;
465 -> 469 ;
470 [label="gini = 0.0\nsamples = 6\nvalue = [0, 0, 6, 0, 0, 0, 0]", fillcolor="#39e54d"] ;
469 -> 470 ;
471 [label="gini = 0.0\nsamples = 1\nvalue = [0, 0, 0, 0, 1, 0, 0]", fillcolor="#3956e5"] ;
469 -> 471 ;
472 [label="volatile acidity <= 0.22\ngini = 0.612\nsamples = 11\nvalue = [1, 0, 1, 6, 3, 0, 0]", fillcolor="#b5f5f4"] ;
464 -> 472 ;
473 [label="gini = 0.0\nsamples = 4\nvalue = [0, 0, 0, 4, 0, 0, 0]", fillcolor="#39e5e2"] ;
472 -> 473 ;
474 [label="chlorides <= 0.036\ngini = 0.694\nsamples = 7\nvalue = [1, 0, 1, 2, 3, 0, 0]", fillcolor="#d7ddfa"] ;
472 -> 474 ;
475 [label="gini = 0.375\nsamples = 4\nvalue = [0, 0, 1, 0, 3, 0, 0]", fillcolor="#7b8eee"] ;
474 -> 475 ;
476 [label="gini = 0.444\nsamples = 3\nvalue = [1, 0, 0, 2, 0, 0, 0]", fillcolor="#9cf2f0"] ;
474 -> 476 ;
477 [label="citric acid <= 0.46\ngini = 0.18\nsamples = 10\nvalue = [0, 0, 0, 9, 1, 0, 0]", fillcolor="#4fe8e5"] ;
463 -> 477 ;
478 [label="gini = 0.0\nsamples = 9\nvalue = [0, 0, 0, 9, 0, 0, 0]", fillcolor="#39e5e2"] ;
477 -> 478 ;
479 [label="gini = 0.0\nsamples = 1\nvalue = [0, 0, 0, 0, 1, 0, 0]", fillcolor="#3956e5"] ;
477 -> 479 ;
480 [label="pH <= 3.035\ngini = 0.46\nsamples = 10\nvalue = [0, 1, 7, 0, 0, 2, 0]", fillcolor="#83ef90"] ;
462 -> 480 ;
481 [label="citric acid <= 0.235\ngini = 0.245\nsamples = 7\nvalue = [0, 1, 6, 0, 0, 0, 0]", fillcolor="#5ae96b"] ;
480 -> 481 ;
482 [label="gini = 0.0\nsamples = 1\nvalue = [0, 1, 0, 0, 0, 0, 0]", fillcolor="#b7e539"] ;
481 -> 482 ;
483 [label="gini = 0.0\nsamples = 6\nvalue = [0, 0, 6, 0, 0, 0, 0]", fillcolor="#39e54d"] ;
481 -> 483 ;
484 [label="residual sugar <= 4.3\ngini = 0.444\nsamples = 3\nvalue = [0, 0, 1, 0, 0, 2, 0]", fillcolor="#d89cf2"] ;
480 -> 484 ;
485 [label="gini = 0.0\nsamples = 2\nvalue = [0, 0, 0, 0, 0, 2, 0]", fillcolor="#b139e5"] ;
484 -> 485 ;
486 [label="gini = 0.0\nsamples = 1\nvalue = [0, 0, 1, 0, 0, 0, 0]", fillcolor="#39e54d"] ;
484 -> 486 ;
487 [label="volatile acidity <= 0.135\ngini = 0.62\nsamples = 371\nvalue = [3, 3, 51, 202, 92, 20, 0]", fillcolor="#b1f5f4"] ;
401 -> 487 ;
488 [label="pH <= 3.28\ngini = 0.461\nsamples = 16\nvalue = [0, 0, 1, 4, 11, 0, 0]", fillcolor="#8c9cf0"] ;
487 -> 488 ;
489 [label="pH <= 3.02\ngini = 0.165\nsamples = 11\nvalue = [0, 0, 1, 0, 10, 0, 0]", fillcolor="#4d67e8"] ;
488 -> 489 ;
490 [label="gini = 0.0\nsamples = 1\nvalue = [0, 0, 1, 0, 0, 0, 0]", fillcolor="#39e54d"] ;
489 -> 490 ;
491 [label="gini = 0.0\nsamples = 10\nvalue = [0, 0, 0, 0, 10, 0, 0]", fillcolor="#3956e5"] ;
489 -> 491 ;
492 [label="free sulfur dioxide <= 37.5\ngini = 0.32\nsamples = 5\nvalue = [0, 0, 0, 4, 1, 0, 0]", fillcolor="#6aece9"] ;
488 -> 492 ;
493 [label="gini = 0.0\nsamples = 4\nvalue = [0, 0, 0, 4, 0, 0, 0]", fillcolor="#39e5e2"] ;
492 -> 493 ;
494 [label="gini = 0.0\nsamples = 1\nvalue = [0, 0, 0, 0, 1, 0, 0]", fillcolor="#3956e5"] ;
492 -> 494 ;
495 [label="residual sugar <= 8.45\ngini = 0.614\nsamples = 355\nvalue = [3, 3, 50, 198, 81, 20, 0]", fillcolor="#aaf4f3"] ;
487 -> 495 ;
496 [label="residual sugar <= 3.55\ngini = 0.597\nsamples = 317\nvalue = [2, 3, 46, 184, 65, 17, 0]", fillcolor="#a2f3f1"] ;
495 -> 496 ;
497 [label="sulphates <= 0.725\ngini = 0.627\nsamples = 214\nvalue = [2, 1, 42, 113, 50, 6, 0]", fillcolor="#b3f5f4"] ;
496 -> 497 ;
498 [label="density <= 0.992\ngini = 0.605\nsamples = 200\nvalue = [2, 1, 40, 111, 43, 3, 0]", fillcolor="#a9f4f2"] ;
497 -> 498 ;
499 [label="total sulfur dioxide <= 176.0\ngini = 0.567\nsamples = 173\nvalue = [1, 0, 29, 104, 36, 3, 0]", fillcolor="#9df2f1"] ;
498 -> 499 ;
500 [label="gini = 0.552\nsamples = 164\nvalue = [1, 0, 23, 101, 36, 3, 0]", fillcolor="#9af2f0"] ;
499 -> 500 ;
501 [label="gini = 0.444\nsamples = 9\nvalue = [0, 0, 6, 3, 0, 0, 0]", fillcolor="#9cf2a6"] ;
499 -> 501 ;
502 [label="free sulfur dioxide <= 41.5\ngini = 0.697\nsamples = 27\nvalue = [1, 1, 11, 7, 7, 0, 0]", fillcolor="#d7fadb"] ;
498 -> 502 ;
503 [label="gini = 0.581\nsamples = 17\nvalue = [0, 1, 10, 2, 4, 0, 0]", fillcolor="#a4f3ad"] ;
502 -> 503 ;
504 [label="gini = 0.64\nsamples = 10\nvalue = [1, 0, 1, 5, 3, 0, 0]", fillcolor="#c6f8f7"] ;
502 -> 504 ;
505 [label="density <= 0.992\ngini = 0.663\nsamples = 14\nvalue = [0, 0, 2, 2, 7, 3, 0]", fillcolor="#b7c2f6"] ;
497 -> 505 ;
506 [label="sulphates <= 0.825\ngini = 0.42\nsamples = 10\nvalue = [0, 0, 0, 0, 7, 3, 0]", fillcolor="#8e9ef0"] ;
505 -> 506 ;
507 [label="gini = 0.0\nsamples = 6\nvalue = [0, 0, 0, 0, 6, 0, 0]", fillcolor="#3956e5"] ;
506 -> 507 ;
508 [label="gini = 0.375\nsamples = 4\nvalue = [0, 0, 0, 0, 1, 3, 0]", fillcolor="#cb7bee"] ;
506 -> 508 ;
509 [label="sulphates <= 0.745\ngini = 0.5\nsamples = 4\nvalue = [0, 0, 2, 2, 0, 0, 0]", fillcolor="#ffffff"] ;
505 -> 509 ;
510 [label="gini = 0.0\nsamples = 2\nvalue = [0, 0, 2, 0, 0, 0, 0]", fillcolor="#39e54d"] ;
509 -> 510 ;
511 [label="gini = 0.0\nsamples = 2\nvalue = [0, 0, 0, 2, 0, 0, 0]", fillcolor="#39e5e2"] ;
509 -> 511 ;
512 [label="chlorides <= 0.054\ngini = 0.49\nsamples = 103\nvalue = [0, 2, 4, 71, 15, 11, 0]", fillcolor="#81eeed"] ;
496 -> 512 ;
513 [label="volatile acidity <= 0.285\ngini = 0.408\nsamples = 82\nvalue = [0, 1, 3, 62, 8, 8, 0]", fillcolor="#6fecea"] ;
512 -> 513 ;
514 [label="free sulfur dioxide <= 100.0\ngini = 0.24\nsamples = 53\nvalue = [0, 0, 1, 46, 3, 3, 0]", fillcolor="#55e9e6"] ;
513 -> 514 ;
515 [label="gini = 0.212\nsamples = 52\nvalue = [0, 0, 1, 46, 3, 2, 0]", fillcolor="#51e8e6"] ;
514 -> 515 ;
516 [label="gini = 0.0\nsamples = 1\nvalue = [0, 0, 0, 0, 0, 1, 0]", fillcolor="#b139e5"] ;
514 -> 516 ;
517 [label="sulphates <= 0.385\ngini = 0.63\nsamples = 29\nvalue = [0, 1, 2, 16, 5, 5, 0]", fillcolor="#a4f3f2"] ;
513 -> 517 ;
518 [label="gini = 0.32\nsamples = 5\nvalue = [0, 0, 0, 1, 0, 4, 0]", fillcolor="#c46aec"] ;
517 -> 518 ;
519 [label="gini = 0.556\nsamples = 24\nvalue = [0, 1, 2, 15, 5, 1, 0]", fillcolor="#97f1f0"] ;
517 -> 519 ;
520 [label="fixed acidity <= 7.05\ngini = 0.68\nsamples = 21\nvalue = [0, 1, 1, 9, 7, 3, 0]", fillcolor="#e3fbfb"] ;
512 -> 520 ;
521 [label="sulphates <= 0.52\ngini = 0.694\nsamples = 11\nvalue = [0, 1, 1, 1, 5, 3, 0]", fillcolor="#ced5f8"] ;
520 -> 521 ;
522 [label="gini = 0.735\nsamples = 7\nvalue = [0, 1, 1, 1, 1, 3, 0]", fillcolor="#e5bdf6"] ;
521 -> 522 ;
523 [label="gini = 0.0\nsamples = 4\nvalue = [0, 0, 0, 0, 4, 0, 0]", fillcolor="#3956e5"] ;
521 -> 523 ;
524 [label="volatile acidity <= 0.175\ngini = 0.32\nsamples = 10\nvalue = [0, 0, 0, 8, 2, 0, 0]", fillcolor="#6aece9"] ;
520 -> 524 ;
525 [label="gini = 0.0\nsamples = 1\nvalue = [0, 0, 0, 0, 1, 0, 0]", fillcolor="#3956e5"] ;
524 -> 525 ;
526 [label="gini = 0.198\nsamples = 9\nvalue = [0, 0, 0, 8, 1, 0, 0]", fillcolor="#52e8e6"] ;
524 -> 526 ;
527 [label="residual sugar <= 9.125\ngini = 0.669\nsamples = 38\nvalue = [1, 0, 4, 14, 16, 3, 0]", fillcolor="#eef1fd"] ;
495 -> 527 ;
528 [label="gini = 0.0\nsamples = 7\nvalue = [0, 0, 0, 0, 7, 0, 0]", fillcolor="#3956e5"] ;
527 -> 528 ;
529 [label="sulphates <= 0.435\ngini = 0.685\nsamples = 31\nvalue = [1, 0, 4, 14, 9, 3, 0]", fillcolor="#d2f9f8"] ;
527 -> 529 ;
530 [label="pH <= 3.085\ngini = 0.533\nsamples = 17\nvalue = [0, 0, 2, 11, 1, 3, 0]", fillcolor="#8ef0ee"] ;
529 -> 530 ;
531 [label="citric acid <= 0.25\ngini = 0.165\nsamples = 11\nvalue = [0, 0, 0, 10, 0, 1, 0]", fillcolor="#4de8e5"] ;
530 -> 531 ;
532 [label="gini = 0.5\nsamples = 2\nvalue = [0, 0, 0, 1, 0, 1, 0]", fillcolor="#ffffff"] ;
531 -> 532 ;
533 [label="gini = 0.0\nsamples = 9\nvalue = [0, 0, 0, 9, 0, 0, 0]", fillcolor="#39e5e2"] ;
531 -> 533 ;
534 [label="fixed acidity <= 7.05\ngini = 0.722\nsamples = 6\nvalue = [0, 0, 2, 1, 1, 2, 0]", fillcolor="#ffffff"] ;
530 -> 534 ;
535 [label="gini = 0.444\nsamples = 3\nvalue = [0, 0, 0, 1, 0, 2, 0]", fillcolor="#d89cf2"] ;
534 -> 535 ;
536 [label="gini = 0.444\nsamples = 3\nvalue = [0, 0, 2, 0, 1, 0, 0]", fillcolor="#9cf2a6"] ;
534 -> 536 ;
537 [label="citric acid <= 0.255\ngini = 0.602\nsamples = 14\nvalue = [1, 0, 2, 3, 8, 0, 0]", fillcolor="#a5b2f3"] ;
529 -> 537 ;
538 [label="gini = 0.0\nsamples = 2\nvalue = [0, 0, 2, 0, 0, 0, 0]", fillcolor="#39e54d"] ;
537 -> 538 ;
539 [label="residual sugar <= 12.175\ngini = 0.486\nsamples = 12\nvalue = [1, 0, 0, 3, 8, 0, 0]", fillcolor="#91a1f1"] ;
537 -> 539 ;
540 [label="gini = 0.198\nsamples = 9\nvalue = [0, 0, 0, 1, 8, 0, 0]", fillcolor="#526be8"] ;
539 -> 540 ;
541 [label="gini = 0.444\nsamples = 3\nvalue = [1, 0, 0, 2, 0, 0, 0]", fillcolor="#9cf2f0"] ;
539 -> 541 ;
542 [label="residual sugar <= 1.85\ngini = 0.631\nsamples = 250\nvalue = [1, 2, 9, 79, 125, 33, 1]", fillcolor="#cad2f8"] ;
370 -> 542 ;
543 [label="free sulfur dioxide <= 39.5\ngini = 0.657\nsamples = 57\nvalue = [0, 1, 5, 27, 18, 6, 0]", fillcolor="#d1f9f8"] ;
542 -> 543 ;
544 [label="sulphates <= 0.515\ngini = 0.622\nsamples = 43\nvalue = [0, 1, 4, 24, 9, 5, 0]", fillcolor="#a8f4f2"] ;
543 -> 544 ;
545 [label="fixed acidity <= 6.25\ngini = 0.691\nsamples = 35\nvalue = [0, 1, 4, 16, 9, 5, 0]", fillcolor="#caf8f7"] ;
544 -> 545 ;
546 [label="chlorides <= 0.025\ngini = 0.478\nsamples = 17\nvalue = [0, 1, 1, 12, 2, 1, 0]", fillcolor="#7beeec"] ;
545 -> 546 ;
547 [label="alcohol <= 13.275\ngini = 0.625\nsamples = 4\nvalue = [0, 1, 1, 0, 2, 0, 0]", fillcolor="#bdc7f6"] ;
546 -> 547 ;
548 [label="gini = 0.0\nsamples = 2\nvalue = [0, 0, 0, 0, 2, 0, 0]", fillcolor="#3956e5"] ;
547 -> 548 ;
549 [label="free sulfur dioxide <= 4.5\ngini = 0.5\nsamples = 2\nvalue = [0, 1, 1, 0, 0, 0, 0]", fillcolor="#ffffff"] ;
547 -> 549 ;
550 [label="gini = 0.0\nsamples = 1\nvalue = [0, 1, 0, 0, 0, 0, 0]", fillcolor="#b7e539"] ;
549 -> 550 ;
551 [label="gini = 0.0\nsamples = 1\nvalue = [0, 0, 1, 0, 0, 0, 0]", fillcolor="#39e54d"] ;
549 -> 551 ;
552 [label="pH <= 3.46\ngini = 0.142\nsamples = 13\nvalue = [0, 0, 0, 12, 0, 1, 0]", fillcolor="#49e7e4"] ;
546 -> 552 ;
553 [label="gini = 0.0\nsamples = 12\nvalue = [0, 0, 0, 12, 0, 0, 0]", fillcolor="#39e5e2"] ;
552 -> 553 ;
554 [label="gini = 0.0\nsamples = 1\nvalue = [0, 0, 0, 0, 0, 1, 0]", fillcolor="#b139e5"] ;
552 -> 554 ;
555 [label="pH <= 3.24\ngini = 0.722\nsamples = 18\nvalue = [0, 0, 3, 4, 7, 4, 0]", fillcolor="#d5dbf9"] ;
545 -> 555 ;
556 [label="alcohol <= 12.75\ngini = 0.736\nsamples = 12\nvalue = [0, 0, 3, 4, 2, 3, 0]", fillcolor="#e9fcfc"] ;
555 -> 556 ;
557 [label="gini = 0.0\nsamples = 3\nvalue = [0, 0, 0, 3, 0, 0, 0]", fillcolor="#39e5e2"] ;
556 -> 557 ;
558 [label="free sulfur dioxide <= 25.0\ngini = 0.716\nsamples = 9\nvalue = [0, 0, 3, 1, 2, 3, 0]", fillcolor="#ffffff"] ;
556 -> 558 ;
559 [label="gini = 0.0\nsamples = 3\nvalue = [0, 0, 3, 0, 0, 0, 0]", fillcolor="#39e54d"] ;
558 -> 559 ;
560 [label="total sulfur dioxide <= 107.0\ngini = 0.611\nsamples = 6\nvalue = [0, 0, 0, 1, 2, 3, 0]", fillcolor="#eccef8"] ;
558 -> 560 ;
561 [label="gini = 0.0\nsamples = 3\nvalue = [0, 0, 0, 0, 0, 3, 0]", fillcolor="#b139e5"] ;
560 -> 561 ;
562 [label="gini = 0.444\nsamples = 3\nvalue = [0, 0, 0, 1, 2, 0, 0]", fillcolor="#9caaf2"] ;
560 -> 562 ;
563 [label="total sulfur dioxide <= 102.5\ngini = 0.278\nsamples = 6\nvalue = [0, 0, 0, 0, 5, 1, 0]", fillcolor="#6178ea"] ;
555 -> 563 ;
564 [label="gini = 0.0\nsamples = 5\nvalue = [0, 0, 0, 0, 5, 0, 0]", fillcolor="#3956e5"] ;
563 -> 564 ;
565 [label="gini = 0.0\nsamples = 1\nvalue = [0, 0, 0, 0, 0, 1, 0]", fillcolor="#b139e5"] ;
563 -> 565 ;
566 [label="gini = 0.0\nsamples = 8\nvalue = [0, 0, 0, 8, 0, 0, 0]", fillcolor="#39e5e2"] ;
544 -> 566 ;
567 [label="free sulfur dioxide <= 55.5\ngini = 0.531\nsamples = 14\nvalue = [0, 0, 1, 3, 9, 1, 0]", fillcolor="#93a3f1"] ;
543 -> 567 ;
568 [label="citric acid <= 0.315\ngini = 0.375\nsamples = 12\nvalue = [0, 0, 0, 3, 9, 0, 0]", fillcolor="#7b8eee"] ;
567 -> 568 ;
569 [label="volatile acidity <= 0.23\ngini = 0.5\nsamples = 6\nvalue = [0, 0, 0, 3, 3, 0, 0]", fillcolor="#ffffff"] ;
568 -> 569 ;
570 [label="gini = 0.0\nsamples = 3\nvalue = [0, 0, 0, 3, 0, 0, 0]", fillcolor="#39e5e2"] ;
569 -> 570 ;
571 [label="gini = 0.0\nsamples = 3\nvalue = [0, 0, 0, 0, 3, 0, 0]", fillcolor="#3956e5"] ;
569 -> 571 ;
572 [label="gini = 0.0\nsamples = 6\nvalue = [0, 0, 0, 0, 6, 0, 0]", fillcolor="#3956e5"] ;
568 -> 572 ;
573 [label="free sulfur dioxide <= 63.5\ngini = 0.5\nsamples = 2\nvalue = [0, 0, 1, 0, 0, 1, 0]", fillcolor="#ffffff"] ;
567 -> 573 ;
574 [label="gini = 0.0\nsamples = 1\nvalue = [0, 0, 0, 0, 0, 1, 0]", fillcolor="#b139e5"] ;
573 -> 574 ;
575 [label="gini = 0.0\nsamples = 1\nvalue = [0, 0, 1, 0, 0, 0, 0]", fillcolor="#39e54d"] ;
573 -> 575 ;
576 [label="free sulfur dioxide <= 20.5\ngini = 0.6\nsamples = 193\nvalue = [1, 1, 4, 52, 107, 27, 1]", fillcolor="#b2bdf5"] ;
542 -> 576 ;
577 [label="citric acid <= 0.225\ngini = 0.577\nsamples = 48\nvalue = [1, 1, 1, 23, 21, 1, 0]", fillcolor="#f0fdfd"] ;
576 -> 577 ;
578 [label="gini = 0.0\nsamples = 7\nvalue = [0, 0, 0, 0, 7, 0, 0]", fillcolor="#3956e5"] ;
577 -> 578 ;
579 [label="residual sugar <= 5.75\ngini = 0.566\nsamples = 41\nvalue = [1, 1, 1, 23, 14, 1, 0]", fillcolor="#bdf6f5"] ;
577 -> 579 ;
580 [label="residual sugar <= 2.75\ngini = 0.472\nsamples = 31\nvalue = [1, 0, 1, 21, 8, 0, 0]", fillcolor="#8ff0ef"] ;
579 -> 580 ;
581 [label="sulphates <= 0.535\ngini = 0.54\nsamples = 10\nvalue = [0, 0, 1, 3, 6, 0, 0]", fillcolor="#aab7f4"] ;
580 -> 581 ;
582 [label="gini = 0.0\nsamples = 6\nvalue = [0, 0, 0, 0, 6, 0, 0]", fillcolor="#3956e5"] ;
581 -> 582 ;
583 [label="sulphates <= 0.575\ngini = 0.375\nsamples = 4\nvalue = [0, 0, 1, 3, 0, 0, 0]", fillcolor="#7beeec"] ;
581 -> 583 ;
584 [label="gini = 0.0\nsamples = 1\nvalue = [0, 0, 1, 0, 0, 0, 0]", fillcolor="#39e54d"] ;
583 -> 584 ;
585 [label="gini = 0.0\nsamples = 3\nvalue = [0, 0, 0, 3, 0, 0, 0]", fillcolor="#39e5e2"] ;
583 -> 585 ;
586 [label="citric acid <= 0.385\ngini = 0.254\nsamples = 21\nvalue = [1, 0, 0, 18, 2, 0, 0]", fillcolor="#58e9e7"] ;
580 -> 586 ;
587 [label="fixed acidity <= 6.75\ngini = 0.18\nsamples = 20\nvalue = [0, 0, 0, 18, 2, 0, 0]", fillcolor="#4fe8e5"] ;
586 -> 587 ;
588 [label="gini = 0.0\nsamples = 14\nvalue = [0, 0, 0, 14, 0, 0, 0]", fillcolor="#39e5e2"] ;
587 -> 588 ;
589 [label="total sulfur dioxide <= 84.0\ngini = 0.444\nsamples = 6\nvalue = [0, 0, 0, 4, 2, 0, 0]", fillcolor="#9cf2f0"] ;
587 -> 589 ;
590 [label="gini = 0.0\nsamples = 2\nvalue = [0, 0, 0, 0, 2, 0, 0]", fillcolor="#3956e5"] ;
589 -> 590 ;
591 [label="gini = 0.0\nsamples = 4\nvalue = [0, 0, 0, 4, 0, 0, 0]", fillcolor="#39e5e2"] ;
589 -> 591 ;
592 [label="gini = 0.0\nsamples = 1\nvalue = [1, 0, 0, 0, 0, 0, 0]", fillcolor="#e58139"] ;
586 -> 592 ;
593 [label="free sulfur dioxide <= 12.5\ngini = 0.58\nsamples = 10\nvalue = [0, 1, 0, 2, 6, 1, 0]", fillcolor="#9caaf2"] ;
579 -> 593 ;
594 [label="gini = 0.0\nsamples = 4\nvalue = [0, 0, 0, 0, 4, 0, 0]", fillcolor="#3956e5"] ;
593 -> 594 ;
595 [label="density <= 0.992\ngini = 0.722\nsamples = 6\nvalue = [0, 1, 0, 2, 2, 1, 0]", fillcolor="#ffffff"] ;
593 -> 595 ;
596 [label="density <= 0.991\ngini = 0.625\nsamples = 4\nvalue = [0, 1, 0, 0, 2, 1, 0]", fillcolor="#bdc7f6"] ;
595 -> 596 ;
597 [label="volatile acidity <= 0.345\ngini = 0.5\nsamples = 2\nvalue = [0, 1, 0, 0, 0, 1, 0]", fillcolor="#ffffff"] ;
596 -> 597 ;
598 [label="gini = 0.0\nsamples = 1\nvalue = [0, 1, 0, 0, 0, 0, 0]", fillcolor="#b7e539"] ;
597 -> 598 ;
599 [label="gini = 0.0\nsamples = 1\nvalue = [0, 0, 0, 0, 0, 1, 0]", fillcolor="#b139e5"] ;
597 -> 599 ;
600 [label="gini = 0.0\nsamples = 2\nvalue = [0, 0, 0, 0, 2, 0, 0]", fillcolor="#3956e5"] ;
596 -> 600 ;
601 [label="gini = 0.0\nsamples = 2\nvalue = [0, 0, 0, 2, 0, 0, 0]", fillcolor="#39e5e2"] ;
595 -> 601 ;
602 [label="fixed acidity <= 5.65\ngini = 0.576\nsamples = 145\nvalue = [0, 0, 3, 29, 86, 26, 1]", fillcolor="#9eacf2"] ;
576 -> 602 ;
603 [label="density <= 0.989\ngini = 0.633\nsamples = 16\nvalue = [0, 0, 1, 2, 5, 8, 0]", fillcolor="#eac9f8"] ;
602 -> 603 ;
604 [label="citric acid <= 0.14\ngini = 0.375\nsamples = 4\nvalue = [0, 0, 0, 1, 3, 0, 0]", fillcolor="#7b8eee"] ;
603 -> 604 ;
605 [label="gini = 0.0\nsamples = 1\nvalue = [0, 0, 0, 1, 0, 0, 0]", fillcolor="#39e5e2"] ;
604 -> 605 ;
606 [label="gini = 0.0\nsamples = 3\nvalue = [0, 0, 0, 0, 3, 0, 0]", fillcolor="#3956e5"] ;
604 -> 606 ;
607 [label="alcohol <= 12.75\ngini = 0.514\nsamples = 12\nvalue = [0, 0, 1, 1, 2, 8, 0]", fillcolor="#d088ef"] ;
603 -> 607 ;
608 [label="alcohol <= 12.65\ngini = 0.667\nsamples = 3\nvalue = [0, 0, 1, 1, 1, 0, 0]", fillcolor="#ffffff"] ;
607 -> 608 ;
609 [label="chlorides <= 0.037\ngini = 0.5\nsamples = 2\nvalue = [0, 0, 0, 1, 1, 0, 0]", fillcolor="#ffffff"] ;
608 -> 609 ;
610 [label="gini = 0.0\nsamples = 1\nvalue = [0, 0, 0, 0, 1, 0, 0]", fillcolor="#3956e5"] ;
609 -> 610 ;
611 [label="gini = 0.0\nsamples = 1\nvalue = [0, 0, 0, 1, 0, 0, 0]", fillcolor="#39e5e2"] ;
609 -> 611 ;
612 [label="gini = 0.0\nsamples = 1\nvalue = [0, 0, 1, 0, 0, 0, 0]", fillcolor="#39e54d"] ;
608 -> 612 ;
613 [label="volatile acidity <= 0.48\ngini = 0.198\nsamples = 9\nvalue = [0, 0, 0, 0, 1, 8, 0]", fillcolor="#bb52e8"] ;
607 -> 613 ;
614 [label="gini = 0.0\nsamples = 8\nvalue = [0, 0, 0, 0, 0, 8, 0]", fillcolor="#b139e5"] ;
613 -> 614 ;
615 [label="gini = 0.0\nsamples = 1\nvalue = [0, 0, 0, 0, 1, 0, 0]", fillcolor="#3956e5"] ;
613 -> 615 ;
616 [label="volatile acidity <= 0.285\ngini = 0.542\nsamples = 129\nvalue = [0, 0, 2, 27, 81, 18, 1]", fillcolor="#96a6f1"] ;
602 -> 616 ;
617 [label="fixed acidity <= 7.45\ngini = 0.651\nsamples = 42\nvalue = [0, 0, 2, 15, 19, 5, 1]", fillcolor="#e2e6fb"] ;
616 -> 617 ;
618 [label="citric acid <= 0.295\ngini = 0.645\nsamples = 38\nvalue = [0, 0, 2, 11, 19, 5, 1]", fillcolor="#c4cdf7"] ;
617 -> 618 ;
619 [label="sulphates <= 0.625\ngini = 0.338\nsamples = 15\nvalue = [0, 0, 0, 1, 12, 2, 0]", fillcolor="#677deb"] ;
618 -> 619 ;
620 [label="chlorides <= 0.038\ngini = 0.142\nsamples = 13\nvalue = [0, 0, 0, 1, 12, 0, 0]", fillcolor="#4964e7"] ;
619 -> 620 ;
621 [label="gini = 0.0\nsamples = 10\nvalue = [0, 0, 0, 0, 10, 0, 0]", fillcolor="#3956e5"] ;
620 -> 621 ;
622 [label="gini = 0.444\nsamples = 3\nvalue = [0, 0, 0, 1, 2, 0, 0]", fillcolor="#9caaf2"] ;
620 -> 622 ;
623 [label="gini = 0.0\nsamples = 2\nvalue = [0, 0, 0, 0, 0, 2, 0]", fillcolor="#b139e5"] ;
619 -> 623 ;
624 [label="total sulfur dioxide <= 102.0\ngini = 0.692\nsamples = 23\nvalue = [0, 0, 2, 10, 7, 3, 1]", fillcolor="#dafafa"] ;
618 -> 624 ;
625 [label="gini = 0.0\nsamples = 4\nvalue = [0, 0, 0, 0, 4, 0, 0]", fillcolor="#3956e5"] ;
624 -> 625 ;
626 [label="fixed acidity <= 6.9\ngini = 0.659\nsamples = 19\nvalue = [0, 0, 2, 10, 3, 3, 1]", fillcolor="#a8f4f2"] ;
624 -> 626 ;
627 [label="gini = 0.292\nsamples = 12\nvalue = [0, 0, 1, 10, 0, 1, 0]", fillcolor="#5deae7"] ;
626 -> 627 ;
628 [label="gini = 0.694\nsamples = 7\nvalue = [0, 0, 1, 0, 3, 2, 1]", fillcolor="#d7ddfa"] ;
626 -> 628 ;
629 [label="gini = 0.0\nsamples = 4\nvalue = [0, 0, 0, 4, 0, 0, 0]", fillcolor="#39e5e2"] ;
617 -> 629 ;
630 [label="density <= 0.993\ngini = 0.451\nsamples = 87\nvalue = [0, 0, 0, 12, 62, 13, 0]", fillcolor="#7c8fee"] ;
616 -> 630 ;
631 [label="citric acid <= 0.285\ngini = 0.431\nsamples = 85\nvalue = [0, 0, 0, 12, 62, 11, 0]", fillcolor="#778bed"] ;
630 -> 631 ;
632 [label="volatile acidity <= 0.325\ngini = 0.59\nsamples = 27\nvalue = [0, 0, 0, 5, 15, 7, 0]", fillcolor="#b0bbf5"] ;
631 -> 632 ;
633 [label="residual sugar <= 3.6\ngini = 0.531\nsamples = 8\nvalue = [0, 0, 0, 2, 1, 5, 0]", fillcolor="#d89cf2"] ;
632 -> 633 ;
634 [label="gini = 0.444\nsamples = 3\nvalue = [0, 0, 0, 2, 1, 0, 0]", fillcolor="#9cf2f0"] ;
633 -> 634 ;
635 [label="gini = 0.0\nsamples = 5\nvalue = [0, 0, 0, 0, 0, 5, 0]", fillcolor="#b139e5"] ;
633 -> 635 ;
636 [label="pH <= 3.32\ngini = 0.421\nsamples = 19\nvalue = [0, 0, 0, 3, 14, 2, 0]", fillcolor="#778bed"] ;
632 -> 636 ;
637 [label="gini = 0.291\nsamples = 17\nvalue = [0, 0, 0, 3, 14, 0, 0]", fillcolor="#637aeb"] ;
636 -> 637 ;
638 [label="gini = 0.0\nsamples = 2\nvalue = [0, 0, 0, 0, 0, 2, 0]", fillcolor="#b139e5"] ;
636 -> 638 ;
639 [label="citric acid <= 0.325\ngini = 0.324\nsamples = 58\nvalue = [0, 0, 0, 7, 47, 4, 0]", fillcolor="#647aeb"] ;
631 -> 639 ;
640 [label="free sulfur dioxide <= 27.0\ngini = 0.119\nsamples = 32\nvalue = [0, 0, 0, 1, 30, 1, 0]", fillcolor="#4661e7"] ;
639 -> 640 ;
641 [label="gini = 0.5\nsamples = 2\nvalue = [0, 0, 0, 1, 1, 0, 0]", fillcolor="#ffffff"] ;
640 -> 641 ;
642 [label="gini = 0.064\nsamples = 30\nvalue = [0, 0, 0, 0, 29, 1, 0]", fillcolor="#405ce6"] ;
640 -> 642 ;
643 [label="residual sugar <= 2.25\ngini = 0.506\nsamples = 26\nvalue = [0, 0, 0, 6, 17, 3, 0]", fillcolor="#92a2f1"] ;
639 -> 643 ;
644 [label="gini = 0.444\nsamples = 6\nvalue = [0, 0, 0, 4, 2, 0, 0]", fillcolor="#9cf2f0"] ;
643 -> 644 ;
645 [label="gini = 0.405\nsamples = 20\nvalue = [0, 0, 0, 2, 15, 3, 0]", fillcolor="#7388ed"] ;
643 -> 645 ;
646 [label="gini = 0.0\nsamples = 2\nvalue = [0, 0, 0, 0, 0, 2, 0]", fillcolor="#b139e5"] ;
630 -> 646 ;
}